# RNN Model Text Format v1.0
# Architecture: 216 64 4

[inputToHiddenWeights]
216 64
0.0548543379 -0.0082368970 -0.0429419291 -0.0753256429 -0.1083097769 0.0301843156 0.0319238004 -0.0301418865 0.0238271992 0.0576790196 0.1161078038 0.0234720754 -0.0800752198 -0.0927663513 -0.0568713669 -0.1138795808 0.0069577767 0.0088221404 0.1111868821 0.1217208485 0.1154640659 0.0713453617 0.0416957749 0.0088475419 -0.0692290105 0.0075054780 0.0901438571 -0.0950134921 -0.0022907290 -0.0797808397 0.0902655681 -0.0512175735 -0.1026594798 -0.0424967179 -0.0417232111 -0.1416810073 -0.0784585539 0.0919157718 -0.0341694148 0.0345457942 -0.1344952862 -0.0662982879 -0.1034718172 -0.0158801184 -0.1119209385 -0.0339958036 -0.1406192270 0.0512812054 -0.0900267279 -0.0340555150 -0.0556215530 -0.0472887883 -0.1070609939 -0.1048713976 0.1192436751 -0.0763129997 -0.1364555376 0.1091791787 -0.0850471111 -0.0658440721 -0.0876203047 0.0627517496 0.0825403471 0.1242745073
0.0108387177 0.0420793523 0.1432899036 0.1255141542 -0.0486228500 -0.0232190295 0.0643421897 0.0351239665 0.1272941216 -0.1217116153 0.0391887073 0.0864092699 0.0255983680 -0.0697979792 0.0724701177 -0.0094920179 0.0359690499 -0.0586047486 0.1098425299 0.0673024492 0.0176838118 -0.0243048144 0.0377789496 0.1349068385 -0.0068182473 0.0317270500 -0.0440202142 -0.0944924746 -0.0663761412 -0.0559725888 -0.0995204364 0.0010925840 0.0226990803 -0.0792730964 -0.0640750884 -0.0065479532 -0.0524138889 -0.0903205247 -0.0066860106 -0.0304570948 -0.1441736580 -0.0039538273 0.1260814280 0.0978562327 0.0944397469 -0.0960943137 -0.0977383226 -0.0922158960 0.0814990130 0.0287013595 -0.0601032937 0.0320262564 0.0514078424 -0.0502017179 0.1184900720 -0.0560348564 0.1420900312 -0.1409899726 0.0924117410 0.0278256074 -0.0140738700 0.0884473698 0.1343599233 0.0041846658
-0.0202926498 -0.1250327952 -0.0002260732 0.0624193320 -0.1283615945 0.1022233391 -0.1071426150 -0.1095769066 -0.0390664180 -0.0089930791 -0.1105938378 0.1199135056 -0.0806190301 -0.1096753274 -0.0458270313 0.1021018901 0.0493428103 0.0103791613 0.1053416388 -0.1407546341 0.1394448047 0.0368221071 -0.0941103795 0.0449863713 0.0087120984 -0.0163703824 -0.0001984630 -0.1052008396 -0.0696121566 -0.1111203062 0.1033749348 0.1273807923 -0.1087690116 -0.1121826977 0.0276682154 0.1374112105 -0.0541324272 -0.0306199895 -0.1072438104 -0.1330442333 -0.0589816145 0.0755962323 -0.0019318678 0.0512174845 0.1336416749 -0.1034597206 0.0474765307 0.0542422789 -0.0253170154 -0.1442896823 -0.1343455478 -0.0035784105 0.1266152066 -0.1234111530 -0.0319580825 0.1402982852 0.0871842831 0.0313367547 -0.1162742214 0.0320645895 0.0916874802 -0.0645932452 0.0743449786 -0.1184635405
0.1080752233 -0.0764112509 -0.1461803905 -0.3738634492 -0.2034181189 -0.0615817638 0.4149630295 -0.0270146356 -0.3255578594 -0.0313311651 -0.2046899264 0.2707156785 -0.1151631234 0.1684311692 0.3650898746 0.2501423596 0.4236784373 0.2057388367 -0.2101210643 -0.3081024755 -0.1591661031 0.3313848531 -0.3169123757 -0.1826600129 0.0962904282 -0.0951525573 -0.3144490843 -0.7531004735 -0.1219852514 -0.2156404212 -0.2236457631 -0.1560310795 -0.3334569995 0.4049002199 0.4133294569 -0.1811485965 -0.1790606973 0.4118714513 0.2831527677 -0.3018756244 -0.1461143213 -0.4111698563 -0.0344026909 0.3234240251 -0.2862879619 0.4158644451 0.2796684751 -0.2825366168 0.0453801021 0.3161115813 -0.2044192292 0.3126140141 0.1398645893 0.3167369772 -0.2757579962 0.2743281403 0.3840808681 -0.1894594050 0.3208453420 0.2357540911 0.1709065527 -0.1529250083 -0.1714225562 -0.1601651139
-0.0322057055 -0.0459399610 -0.0937962264 -0.1097859322 0.0843917326 0.0485752039 0.0973001532 -0.1400687751 0.1437139440 0.0503282334 0.1169910875 -0.1181267991 0.0590412452 -0.1226422985 -0.0519956309 0.0759456489 -0.0300098990 0.1223513335 0.1295451916 0.1312896115 -0.0665063086 -0.1073579683 -0.0431793045 0.0807965643 -0.0270221699 -0.0271477265 0.0994696039 0.0233210735 -0.1312841771 -0.1210682349 0.0229110121 0.0874125834 -0.1085090606 -0.0525474542 0.0199524269 -0.0662490347 -0.0499318993 0.0917891348 -0.0354841036 0.0162792164 -0.0699772970 -0.0569258693 -0.0886628008 -0.0610937143 -0.0103811933 0.0588454040 -0.0704983143 0.0456698642 0.0218079573 -0.0999730462 0.1360598873 -0.0856331184 0.1183476069 0.0781434191 0.0417552405 -0.1237639129 0.0450955652 0.0879499395 -0.1297856351 -0.0506792814 -0.1219113731 0.1447404498 -0.1382620711 -0.1045145593
0.0284100166 0.1278941287 0.1285459390 -0.0318940441 0.0195410587 -0.0787525711 -0.0846593246 0.0971934691 -0.0790282235 0.0493440407 0.0480112321 -0.0944912891 -0.1095287759 0.0674437962 -0.0792946217 0.1204191709 0.0488794837 -0.1247193469 0.1230263709 0.0733434942 -0.0689766818 -0.0141717852 0.0446970860 -0.0082773786 -0.0936269461 0.1363697173 -0.0046669440 0.1195660388 0.0216603990 -0.0009937024 0.1205468583 -0.0965838402 -0.1359445268 0.0820853440 -0.0377245031 -0.1397740933 0.0612400968 0.0538570862 -0.0015798097 -0.0716644388 -0.1450974908 0.0544025016 -0.1034242656 0.1187179186 -0.1249597514 0.0923277078 -0.0641504342 -0.1421654480 0.1426266877 0.1153002934 -0.1377336042 -0.0257809818 -0.0764516505 0.0458063112 0.0420418601 -0.0560765563 -0.0320487402 -0.0749707886 0.0147453116 0.0190971875 -0.1460470767 -0.0301657104 -0.0430643152 0.0253122330
0.0816163233 0.1378653043 0.0418442712 -0.0959923476 0.0964479977 -0.1457286613 -0.0685887163 0.1022139128 -0.0444159922 -0.1058942845 -0.1198888313 -0.0278046391 0.0251896368 -0.0226062158 0.0994737384 0.0277018586 -0.1242867655 -0.0753127933 0.0965144931 -0.0599203287 0.1318256551 0.0744631656 -0.0713733515 0.0670184268 -0.0330405363 0.1120707911 0.0866417244 -0.0885005166 -0.1442089383 0.0326521334 0.0336423156 0.0586031715 -0.0012638604 0.0308557007 0.0057765985 -0.0070346744 0.1005782361 -0.0203143338 0.0272610365 0.0936263870 0.0286152147 0.0268615412 -0.1054027420 -0.0287465686 -0.0504068334 0.1351755033 -0.1318427301 0.0479692235 0.0437291615 0.0025873976 0.0065949453 0.0207165148 -0.0348027000 0.0830681330 -0.0989115201 -0.0815535691 0.0474900399 0.0774961545 -0.1302539026 0.0506287669 0.0719971483 -0.0858295786 0.1173368016 0.0962928889
-0.0342541077 0.0856298257 -0.0892636086 0.1215297717 -0.1302503069 0.1411422133 0.0419090210 -0.0716186964 0.1339975829 -0.0427346828 0.1434026332 0.0386153991 -0.1353458399 0.1331414170 -0.1407857672 0.0329017717 0.1187753355 -0.1458333104 -0.1257975663 -0.0714470849 0.1355847088 0.0024726587 -0.0833164554 -0.0640195864 0.0956085730 -0.0362508303 0.0485537726 -0.1194363538 -0.0817309422 0.0312636792 -0.1058621433 -0.0947524590 0.1003706646 0.1363984286 -0.0846970457 -0.0973376248 -0.0996396345 0.0664920569 -0.0582793423 0.0698679616 0.1134677108 -0.1137730602 0.0297056680 0.1261720967 -0.0422686250 0.0524966381 -0.0971309071 0.1272848464 -0.1339723941 0.0968423619 -0.1095366248 0.0601020706 -0.0394911402 0.0802410329 -0.0326113713 0.1463570017 0.0179836874 -0.0496548709 0.0981274045 -0.0749727217 -0.0455172607 0.1189696276 -0.0995733877 -0.1184900910
-0.0270393844 -0.0695909039 0.0135393066 0.0943182542 -0.0050810468 -0.0441509781 -0.0315104405 -0.0255451738 -0.0246925862 -0.0649242176 -0.0100533477 -0.0965850001 -0.1335917490 -0.1335902135 0.0542643961 0.1230905253 -0.0653729158 -0.1437852752 -0.0323043421 -0.1183743449 0.0046631297 -0.1291392911 0.0794211379 0.0533538933 -0.0029071279 0.1249386941 -0.0724612794 0.1451228639 -0.0859148939 0.0308180815 -0.0744964472 -0.0070647396 0.0537476215 0.1049200310 -0.0571504514 -0.1156677837 0.0991626231 -0.0937446355 0.1223410874 -0.1204820724 0.0407314993 -0.0947901394 -0.0361155908 0.0214387491 0.0055959084 -0.1153036916 -0.0703987290 -0.0659111707 0.1418335162 0.1351452776 -0.0874575818 0.0641306112 0.1068728507 -0.0149151919 0.0189263153 -0.0511884086 0.0006491991 0.0125797221 -0.0233096095 0.0964642100 -0.0455345045 -0.0056319764 -0.0712584880 -0.0698093228
0.1120707681 0.0193379377 0.0544086423 -0.1454100243 0.1122454257 0.0444457008 0.1226123951 0.0447927639 -0.1211893376 -0.0823452663 -0.0937935983 0.0816686920 -0.0916821820 0.0123404772 -0.0563610504 -0.1181241829 0.0820578521 -0.1116981221 0.1259577320 -0.0016231870 -0.0821287573 0.1459964980 -0.0448787231 -0.0393924104 0.1444330886 0.0787546886 0.0978121466 0.1235109295 0.0421632219 -0.0122259549 0.1423067760 -0.0299093400 0.1019228192 0.0213834722 -0.0471152086 -0.0637291927 -0.0624147152 -0.0100613986 -0.0475580268 0.1226140470 0.0374491312 -0.1439379641 0.0193688725 0.0475086354 -0.0329469624 -0.0074824842 -0.0038100721 -0.0836053985 -0.0342102909 0.0803698133 -0.0204333961 0.1345777925 0.0929200962 -0.0265068043 -0.1386861973 0.0475911978 0.0118356418 0.0104475451 0.1321175172 -0.1440124213 -0.0098843609 0.0907654857 -0.0685755265 0.1074624816
0.0969811926 -0.1458987111 0.1153892319 -0.1249174849 -0.1226109669 -0.0862692588 -0.0661448607 -0.0355014638 0.1253861759 -0.1085786544 0.0584520268 0.0294839967 -0.0579582696 0.0122879845 -0.0315731730 0.0953504227 -0.0316031437 -0.1216490317 0.0239056065 0.1384227884 0.0520415482 0.0952473936 -0.0702104097 0.0383065770 -0.1204796164 -0.0607855106 0.0756390784 0.1248322989 -0.0523760733 -0.1429789128 -0.0315882105 -0.1241011968 0.0948145746 0.0489740655 -0.1099299030 -0.0258549121 0.0095151018 -0.0038152341 0.0875852949 0.0038659091 -0.0518661906 0.0220841932 0.0534456546 -0.1009216498 -0.0276254496 0.1428355275 -0.0918916174 0.0564423267 -0.0701251380 0.0978634600 0.1182200054 -0.1075727941 0.0382198669 -0.0991338691 0.0638741449 0.1167420089 -0.1371828243 -0.1241229031 0.0795862034 0.0788206647 -0.1171816993 0.0316376185 0.0098626167 0.0206276832
-0.0493496417 -0.0768455877 0.0412013063 -0.1010346747 0.0853740111 0.1018564068 -0.0332410531 0.1383209151 0.0653622796 0.0900275566 -0.1162302659 -0.0393817833 -0.0013302111 -0.1447946736 0.1234393199 -0.1155227353 0.1141645877 -0.0047254596 0.1219849430 -0.1295182888 0.1257289291 0.1441292975 0.1343147293 0.0695398759 0.1206080106 -0.1163280872 0.1011772106 -0.1410571169 0.0100189298 -0.0894355852 0.0058400866 -0.0945662934 -0.0981290818 -0.0541228474 -0.0221779566 -0.1405844229 -0.1204363591 -0.0165915543 0.0565968825 -0.0402704408 -0.1397755321 -0.0118985575 -0.1198996734 0.0290871163 0.0049763623 -0.0715606174 0.0777096872 -0.0665512008 -0.0147385028 0.0955964155 -0.0402897259 -0.1224720532 -0.0914475379 0.0822227737 -0.0195870832 0.0480190883 -0.0954926978 -0.0590252968 -0.0080699826 -0.0037089397 0.0070649089 0.0160473130 -0.0508121149 -0.0223804568
0.1873179656 -0.3264739526 -0.1781780399 -0.0839924124 -0.3458525018 0.0533509421 0.4946279100 -0.1616232585 -0.3790545335 0.1243787589 -0.2292834766 0.3319330939 -0.1665269806 0.3841363265 0.2336257745 0.2079757048 0.4385871982 0.1127385367 -0.1595112630 -0.2271552107 -0.1556561869 0.1686830058 -0.1140684486 -0.0759502399 0.2189000824 -0.0678306373 -0.1460318726 -0.2293545420 -0.2960964551 -0.3075266443 -0.3730654481 -0.1417938437 -0.1237721923 0.1003657788 0.2830419397 -0.3374967994 -0.3555963578 0.1489317313 0.1258950027 -0.3781127482 -0.2974303494 -0.1308387243 0.3177376094 0.3143661149 -0.1264937823 0.2057874425 0.2624511200 -0.1201387336 0.1593883110 -0.0203229243 -0.1245957549 0.0840927527 0.1427172036 0.1505187498 -0.1787238467 0.0548292323 0.4631637909 -0.5045375813 0.2184931724 0.2978186285 0.1224338983 -0.1401829867 -0.2470854107 -0.3665049542
0.1126637608 0.0883123043 0.1152810106 -0.0512947101 0.1280230404 0.0443703671 -0.1373371047 0.0528152493 -0.1297566093 0.0032847943 -0.0150540351 0.0640894430 -0.0295244842 0.1079495761 -0.0119596026 0.0136447146 -0.0619412993 -0.0348119452 0.0527473644 -0.0696480605 0.0653403778 -0.1082371771 0.0001915971 -0.0429661063 -0.0878816992 0.0459667223 -0.0989455944 -0.1284421925 -0.1393038365 0.0768657375 0.0422637848 -0.0484249233 -0.0362649749 -0.0417937181 -0.0809333842 0.0782679006 -0.1362313743 0.1115665430 0.0553112675 0.1221494035 0.0033464836 0.0024852473 -0.1019713035 -0.1120685494 -0.1229889944 -0.0332569094 -0.0472917009 0.1349702587 0.0118213425 -0.1278708275 0.1386354788 -0.0717618180 -0.1283664712 0.0324797613 0.0761697617 0.0692897256 0.0576100210 0.0204066818 -0.1231961944 -0.0788672909 -0.0529861634 0.0742372498 -0.0498316207 -0.0579536796
-0.1391580201 0.0779203170 0.0072050126 0.0674769086 -0.0321411439 0.0798242158 0.1206355832 -0.1188163973 -0.1463361316 0.0403426357 -0.0855623581 -0.1188787494 -0.0282426607 -0.0737603761 0.1200727854 -0.0753871850 0.1462143366 -0.1306349086 -0.1030713720 0.0529564599 -0.0914132673 -0.0423303579 0.0079955186 0.1368401251 -0.1025390260 0.0276647607 0.0883571402 -0.1110302141 0.1374939576 0.0590713901 0.1251838620 -0.0621634982 0.0588261413 0.1143273677 0.0301267448 -0.0953919387 -0.0509166405 -0.0288709825 -0.0556120698 -0.1150523894 0.0988080333 0.1296376775 0.0693865097 -0.0066800964 0.0400382489 0.0611673223 -0.1010181859 0.0763932214 0.0722443626 0.0363649135 0.1301369260 -0.1199633520 -0.1053858551 -0.0112781111 -0.0043714322 0.0176499211 -0.0565950929 -0.0485720993 0.0520270161 0.0930658047 -0.0390339496 -0.1129232715 0.1059003693 0.0212319557
0.0319145081 0.0823872466 0.1429869689 -0.0178966697 -0.0065926233 0.1207339870 0.0897547701 0.0726330327 0.1289855646 -0.0284996894 0.0166457519 -0.1165052380 -0.0502701196 -0.0145578214 0.0813650566 0.0271612874 -0.0807947995 -0.0442182876 0.0933013816 0.0254457080 -0.0514973013 0.0140408950 0.0756702671 0.1340051644 -0.0964876567 0.0069238657 0.1324047749 0.0599039655 -0.0800117681 0.0771670802 -0.0973614387 0.0097920954 -0.1176878051 -0.0974491115 0.0546004712 0.0107100425 -0.1411832770 0.0435974284 -0.0028432221 0.0467121466 0.1106047449 0.0793868746 -0.1232061313 0.0598172306 -0.0795742593 -0.0713201243 -0.0766151293 -0.0274468487 0.0890482227 0.1095417847 0.0693624851 0.0366199560 -0.0312652499 -0.0634745693 -0.0711954513 -0.0557949276 -0.1010516471 -0.0709239901 -0.1121214573 0.0001395476 -0.1266936561 -0.1462209645 -0.1156164069 -0.1120600191
-0.0294770438 -0.1097417747 0.0335973036 0.0077132162 -0.0659093860 0.1304695255 -0.1023272181 0.0281011527 0.0694029669 0.1258152941 -0.1086816009 -0.1030127165 0.0381740636 -0.0646514884 0.0218697116 0.1352480505 -0.0955482822 -0.0383243457 0.1270325006 0.0124947809 -0.0889747738 -0.0759025329 -0.0057658420 0.1040833975 0.0444625976 -0.0148762462 0.0975061026 -0.0147278725 -0.0427395644 -0.1031220960 -0.0862872166 0.1420169654 0.0072350287 -0.0277273701 -0.0322741826 -0.1414941535 0.0166181704 -0.0207679243 0.1179292745 -0.0353165067 -0.0587544018 -0.1453281471 -0.1291211209 0.1452551421 -0.1132519745 -0.1020406321 -0.0476201054 -0.0916441282 -0.0613816382 0.1296572329 0.0050740866 -0.0725758654 -0.1046818079 -0.1276729748 0.0011567225 0.1011057713 0.0791344295 0.0936693741 -0.0959312646 0.1290520914 0.0930715218 -0.0666690988 -0.1027840373 0.0574526344
-0.1213361668 -0.1402640153 0.1427407027 0.0688818579 0.1132371652 -0.0605382583 0.1097223512 0.1269131779 0.0503737035 -0.0960493905 0.0996647911 -0.0634598032 -0.1128174569 0.0600801179 0.0363954452 -0.1185038007 0.0598983068 -0.0035907290 0.0212404682 0.0961750861 0.1158325035 0.0878274355 0.0737172938 0.0591115702 -0.0671447561 -0.0031758995 -0.0795863439 0.0337612438 -0.1370264158 0.0424562953 0.0166263100 0.0764619661 -0.1023870888 -0.1116532063 -0.0765970054 0.1195289618 -0.0602973458 -0.1202032629 -0.0487421840 0.0772838025 -0.1211203685 -0.0688025709 -0.1256501533 0.0581443504 -0.1185553479 -0.1067565545 -0.0251182222 0.1127867740 -0.0292220116 0.0225418856 0.1318321560 -0.1457321486 0.0085208465 0.0230563347 -0.0373854927 0.0816373597 0.0428098621 0.0685759846 -0.0786228927 0.0561648721 0.1230114876 0.0791018152 -0.0206409610 0.0518854940
0.2229173019 0.0658642530 -0.3643992967 0.2296681887 0.0103261789 0.0589877340 -0.1951079317 0.2553086763 -0.3564279422 0.1276371652 0.2216582787 0.2374372244 -0.1800432472 -0.2076420795 -0.1412079067 -0.2040697569 -0.2825043747 0.0130927896 -0.1913679775 0.1724747794 -0.1512642319 0.2122774977 0.0132549199 -0.2245222783 0.2843142497 0.2764114893 -0.2265911193 0.3043735145 -0.1695161599 -0.0147439227 0.3182517702 -0.2197363740 0.2450098518 -0.0309432639 -0.0792307330 -0.1689010224 0.1564352709 0.3099614381 -0.2268956698 -0.0665168158 -0.1041489136 0.1060459220 -0.1163094256 -0.0485694040 0.2833940793 0.1363515259 -0.0052042224 0.1459934621 -0.1329916287 -0.3143655460 0.2988652237 -0.0638205636 0.0729872169 0.1701694855 -0.1826649948 -0.1106775335 -0.2427273850 0.2950649340 -0.0953031318 0.0698502008 0.2474493840 -0.0671001454 0.1155879653 -0.2573527377
-0.0640698397 0.0149137652 0.1148833688 0.1174625890 -0.1200656771 -0.1060500726 -0.1409800511 -0.0063887381 0.1049268061 -0.0858654632 -0.0931373541 -0.0777513447 -0.1344486016 -0.0245835939 -0.1450670577 0.0687217108 -0.1004089863 0.1304886885 -0.0395055110 -0.0363540929 -0.1234889577 0.0035347547 -0.0200193515 -0.0432611024 -0.1008917084 0.1457258991 0.0430809616 -0.0174051422 -0.0528053768 -0.0340581209 -0.1180642953 0.0585119783 0.1312867479 -0.0522308269 -0.0915545506 -0.1127733214 -0.0812158720 -0.0926844072 -0.1269516473 0.0446684343 -0.0798982197 -0.0435706781 -0.1272746893 0.1222118311 0.1405293338 0.1435737754 0.0739868455 -0.1289024825 -0.0574142875 -0.0476220695 -0.0721386155 0.1395170076 0.0342030095 0.0855532852 -0.1269897866 -0.0204389939 -0.1410889440 0.0418560926 0.1303621163 0.0998409721 -0.0959560903 -0.0573275021 -0.1449718387 -0.0113217419
-0.2948256501 -0.1218816863 0.4409966447 0.4239715987 -0.3999325955 0.1098235897 0.0946479416 0.2473431540 0.1938400586 -0.2449866119 -0.2905895403 -0.1589114697 0.3949234676 0.2208810032 0.3018765544 -0.2725473913 -0.2152783033 -0.2097293516 0.4795736942 -0.2956043646 0.0434409985 -0.1191144572 -0.3423725024 -0.0184698177 -0.0944087058 0.3228162901 0.3487776689 0.4601127878 0.2043339057 0.3199628549 -0.1948560477 0.2140263190 -0.3984441956 -0.1488336476 0.4644174269 0.3749541094 0.2626014781 0.1369665846 0.0860135014 -0.4242850191 0.8456299144 -0.1249022611 0.1930922597 0.4453265781 0.5798898322 -0.3482559778 -0.0799411621 -0.2007077874 0.0599578100 0.1187218353 -0.3792640887 0.0333441535 0.2679643848 -0.2909811775 -0.0935508539 -0.3648642735 0.4117462754 0.0660290844 0.1989851377 -0.1911617705 -0.1387918437 0.4775509044 -0.1479673164 0.3683355992
0.0904025644 -0.0410115040 -0.0876355247 0.1367843544 0.0116672237 0.0116744302 0.0757966383 -0.0106807153 0.1068806447 -0.0489320364 -0.1071428183 -0.1455413972 0.0056258927 -0.1460524325 0.1273424522 -0.0636848728 0.0804598878 0.0229445750 0.0177074998 -0.0378409043 -0.1444054049 0.0167866882 0.0231278234 -0.0385215034 0.1414436078 -0.1022952737 0.0706379955 0.1124435302 -0.1075852770 0.0398313456 0.0817894243 -0.1000705558 -0.1438439842 0.0719629949 0.0745872375 -0.0744565666 0.0967375028 -0.0788358679 -0.0491065712 0.0186861594 -0.1423769345 -0.1019493253 -0.0130056117 0.0077086702 -0.1417612452 0.0873447590 0.0695207933 -0.0956962678 -0.0094423547 -0.0083737897 -0.0623061410 0.0777297483 0.1249167278 -0.0415965208 -0.0141018791 0.0370666885 -0.0858919624 0.0841364308 -0.1369179284 -0.0624049695 -0.0162723934 0.1294743104 -0.0830760220 -0.0666934601
0.0087902989 -0.1330597088 -0.1318653926 -0.1446912593 0.0817659110 0.0598232035 -0.0990217632 0.0398094710 -0.0649419767 0.0958021386 0.0202932205 0.0129549171 -0.0262835989 0.1024552680 0.0486417260 0.0806005340 -0.1045495870 0.0272659816 0.1342193982 0.0747514160 0.0525100960 0.1232536455 0.0241632881 0.0288306848 0.1350563611 -0.0482824614 0.1148994516 -0.1021759194 -0.1087171072 -0.0541440697 -0.0493665958 -0.0498509316 -0.0383606651 0.0320431849 0.1037233643 -0.0368715864 -0.0626978157 0.0349458450 0.0693606494 -0.0091450774 0.0495315619 0.1457260336 -0.0458452657 0.0496479984 -0.0839099315 0.0715179204 0.0597043147 0.1008297943 -0.1356899482 0.0310302238 0.0813002679 -0.1401630714 -0.0349891287 0.0274636676 0.0345914437 -0.0243969430 0.0295761394 0.1107973310 0.1069444070 0.0165063260 0.0880471302 -0.0836364503 0.0138466737 0.1079055142
0.1382382347 0.0464240861 0.0161742824 -0.1405115768 0.0512259874 0.1371099717 -0.1009044046 -0.1034606784 -0.0065393902 -0.0850655715 -0.1445455989 -0.0574835805 0.1138394410 -0.1263749845 -0.1379460039 -0.0278388306 -0.0575626712 -0.0451893258 0.0095776708 -0.0409223876 0.1174759053 -0.0951817851 -0.0737617098 -0.1241505228 -0.0678456070 0.1234602951 0.0644889560 -0.1325243257 -0.0788977720 0.1372526240 -0.0590157307 -0.0831600976 -0.1318084706 -0.0139599986 -0.1070761782 0.1046845948 0.0970683256 -0.0813766515 -0.1117371528 0.0240793646 -0.0959591804 0.0694290820 0.0826450522 -0.0546155476 -0.1188526686 -0.0760927798 -0.0551731055 0.1163079079 -0.0125410276 -0.0222871191 -0.1455490644 0.1362987027 0.1394658978 0.1139687454 0.0321059776 0.0237284306 -0.1109534226 -0.0703940129 0.0180275277 -0.1263398342 -0.0243755491 -0.0970748939 0.0147547364 -0.1359626246
-0.0286696809 -0.0048501110 0.0376250177 0.0807283814 -0.1254792940 -0.1434442398 0.1102838447 -0.0400705948 0.0781686475 0.1385952108 -0.0873981585 -0.0031094916 -0.1247223277 0.1014381681 -0.0394123435 0.0649336727 -0.1245561331 0.0270811880 -0.0196881681 -0.0699701572 -0.1255796062 -0.0985997190 -0.0284360416 -0.0618832138 0.0007754413 0.0333828047 -0.0784644981 0.0009700966 -0.0526291872 0.0174356473 -0.0933273981 0.0860449410 0.0157866146 -0.1368419230 -0.1083578688 0.0666248091 0.0188700868 -0.1430608065 -0.0584201905 -0.0775495208 -0.1067374875 -0.1387205658 0.0806261481 0.0275406719 -0.0765397550 -0.0792431750 0.0108894725 0.0630446227 -0.0326755221 -0.1389980277 -0.0876847565 -0.0573159295 0.0648518457 -0.0186121681 -0.0029075715 -0.1363365430 -0.0692054270 0.0648356258 0.1052861890 -0.1319592680 0.0246184028 -0.1426393774 0.0201584332 0.0925652108
0.1074452508 -0.1366398691 -0.1086798950 -0.1228206475 0.0642600945 -0.1125783734 -0.0852249261 0.0802678625 0.0382662632 0.1375774549 -0.1251832514 0.1083488748 0.0272309382 0.0959387633 -0.1369682303 -0.0540727438 -0.1054429011 -0.0154886376 -0.0828195660 -0.0371364829 0.0143129882 -0.1135415733 0.0550582825 0.0400543589 -0.0684275324 0.1240602246 0.0673554160 0.0973824443 -0.0250794525 -0.0473242976 -0.0271093460 0.0739199824 -0.1051787677 -0.1175202846 -0.1117912548 -0.1093788937 -0.0135012362 0.1386684780 -0.1147528000 0.0833303212 0.1173859662 0.0420862643 -0.1209653000 0.1314687014 0.0830375915 0.0119162834 0.0246768569 0.0144778882 0.0806195105 -0.0252432237 0.1286999478 0.0771239015 0.0441276040 -0.0520212189 0.0185864966 0.0916036706 0.0548026338 0.0007719668 -0.0370374112 0.0097728530 -0.0502247150 -0.0137813541 0.1203580550 0.1039287020
0.2015203652 -0.1205198209 -0.1291957265 0.0045208031 -0.0481831266 -0.1334263350 -0.2260451407 -0.2136038187 -0.2846678105 0.2843828281 0.0261872983 0.2088166668 -0.1712169531 0.0667965588 0.1288857796 -0.1111193539 0.0617823979 0.1795791971 -0.4740589810 -0.0267460222 -0.0717760273 0.1668880735 0.2101424176 -0.2425142647 0.0475622556 0.1004173439 -0.1366279937 -0.0243886803 -0.0337819631 -0.1092344876 -0.2185765984 0.0052757825 0.0135863593 -0.1239195410 -0.0881446522 0.0144648636 -0.2090201793 0.3738687223 0.1322767520 0.1375775917 -0.1163345238 0.2275924680 -0.3352382123 0.0892850014 0.2264143612 0.2936964743 -0.0735179805 0.0215798518 -0.1245535398 -0.0065102076 0.0597461158 0.2241834442 -0.1573990874 -0.0978110799 -0.0762629614 0.0672065417 0.1249990658 -0.1213214972 0.0275145323 0.1073249198 0.0144957700 -0.0845852010 -0.0301674514 0.0077473138
-0.0999684500 -0.0005314773 0.0525243334 0.0513175236 -0.0488602804 0.1300549289 -0.0991268685 -0.0926345162 0.0243069798 0.0250755765 0.0817562519 -0.0725937331 0.0878103701 -0.0358280581 0.0623573213 0.0982387441 0.1227741420 -0.1141163104 -0.1020225584 -0.0194814143 0.1152386528 0.1254907445 0.0636024459 0.0554035287 0.0878215347 -0.0287768654 0.1312325250 -0.1287616734 -0.0914578338 0.1216593757 0.0633801377 0.0431267012 0.0385132318 -0.0421015346 0.0376504643 0.0196075154 -0.1358949461 -0.0936597191 -0.0486513665 0.0472958289 0.1088155874 0.1250031200 0.0884062565 -0.0376994841 -0.0552429324 -0.0448568129 -0.0884179648 -0.1370208411 -0.0419507769 -0.0821705496 -0.0816080405 0.0314490561 0.0426974670 0.0565753620 0.0282349479 -0.0689031249 0.1100698336 0.0232600274 0.0254579850 0.0190303730 0.1199299481 -0.0084580135 -0.1220270722 -0.1068326083
-0.1443979905 -0.0761361261 -0.0683848666 -0.0106063346 -0.1344549901 -0.0223263887 -0.0876349669 -0.1205337669 0.1105326441 -0.0579956805 0.1447605809 -0.0608505785 0.0870829883 0.0782777584 -0.1061207775 -0.0011238623 0.1378389869 0.0258522483 -0.0437230917 0.1311913749 0.1338830287 -0.1027351917 0.0622613452 0.0140747092 0.0916313782 -0.1368303199 -0.0938332328 0.1410111936 0.1352137310 0.0025009193 -0.1235086381 -0.0752043359 0.0097132180 -0.0644288370 0.1347681799 -0.0087648699 0.0811977911 0.0728888502 0.1225319280 -0.1158489002 -0.1409118421 0.1282891716 0.1047521431 0.1437443818 -0.1283620701 -0.1331066811 -0.0402915518 -0.0304241633 -0.0039727887 -0.0701296201 -0.0298788328 -0.0520951827 0.0381652766 -0.0661326681 -0.0884907861 -0.0335152484 -0.0567844521 0.0315826729 0.1435948240 -0.0683799591 -0.0206308419 -0.1260235507 -0.0592651086 -0.0603449630
-0.0794946759 -0.0560109500 0.0861240683 0.0328812942 -0.0281747967 0.1222224044 0.0072303323 -0.1288102441 -0.0435149796 -0.1195392758 -0.0450483883 -0.0897364217 0.0082572234 -0.0278905592 0.0460689175 0.0904053596 -0.0261364190 -0.0401174984 0.0018631843 0.1411168555 -0.0049729502 0.1089653975 -0.0497496289 0.0989068026 -0.0947183187 0.0489733062 0.0265178583 -0.0910210343 -0.1028232914 0.1139930105 -0.0016327081 0.1122563842 0.0851257254 0.0512509138 0.0911547233 0.1202893065 0.0785812277 -0.0330721605 0.0643414812 -0.1410899124 -0.0497543351 -0.1014786735 0.0216419563 -0.0889541776 -0.0935255489 0.0264477031 0.1158279635 -0.0116801048 -0.0750225200 -0.1047997995 -0.0302371226 -0.0641094583 -0.1043565132 -0.0499278502 -0.0041493026 -0.0621501458 0.0419943623 0.0126104881 0.0540367336 0.1063953489 -0.1220827849 0.0176492100 -0.0476846860 -0.0077125239
0.0894557017 0.0112370321 0.1297619241 -0.0415987366 0.0199558553 -0.0919260712 -0.0108419454 -0.0880835617 -0.0091641359 -0.0841563828 0.0128545927 0.0658722844 -0.1178045454 0.1128078253 -0.0254327587 0.0471845033 0.1101318349 0.1056580720 -0.0501947624 0.0584357642 0.0647124214 0.1010343308 -0.0472669143 0.1398888235 -0.0938290723 -0.0726469367 -0.1327510466 0.0600151102 0.0502296969 -0.0875597221 -0.1223720941 -0.0434462796 -0.0436750893 -0.0283082081 0.0494043110 0.0522883269 0.1403751200 0.1220075296 -0.0534053897 0.1091306705 0.0344215000 0.0038088982 -0.1131049351 -0.0935211688 0.0784422689 0.1070707931 -0.0293348588 -0.0034436861 0.1142078937 0.0659724267 -0.1322255843 0.1115647934 0.0481573614 -0.1287963638 0.0316754530 0.0402784695 -0.0767736441 -0.0155430777 -0.0245873502 0.0713846386 0.0139488644 -0.0952740630 -0.0918829879 0.0795459469
0.2794460499 -0.1561640325 -0.1644908942 -0.2821616212 -0.3115653089 0.0341838597 0.3719848419 -0.3136317104 -0.4259497469 -0.0580859239 -0.2359941273 0.1382745381 -0.1403684508 0.2536298040 0.1769369307 0.3964196194 0.3962317107 0.2656119669 -0.1057130078 -0.2508400262 -0.1718633585 0.4295508074 -0.1064468600 -0.0692996932 0.1463891355 -0.0078541709 -0.2189365282 -0.6487511130 -0.3329776618 -0.2581699256 -0.3721277756 -0.1790445826 -0.3257738035 0.2726382144 0.2419569147 -0.0721917395 -0.2786077509 0.3554931879 0.1888314297 -0.3546687543 -0.0709597066 -0.1231468308 0.0531593438 0.3206922668 -0.2493420385 0.2762286250 0.1868280645 -0.3329694518 0.0171248572 0.2476458279 -0.2713604663 0.2268795209 0.2330220304 0.2174153028 -0.2741999465 0.1990752901 0.2978541565 -0.3684510971 0.3878371221 0.2469523915 0.2530238224 -0.2004186914 -0.1341875147 -0.1126202778
-0.0116045796 0.0524534529 0.0295034957 0.0368075702 -0.0188134190 -0.0735611483 -0.1081262627 0.0814455599 -0.1081724203 -0.0607985282 0.1091024429 0.0639810129 -0.1454495774 0.0334179030 -0.0758459356 0.0303973766 0.0602754076 -0.0748561209 -0.1278797419 0.1407167500 -0.1346564923 0.0756135404 -0.1449700772 -0.1284998405 -0.1057096844 -0.1183925334 0.0097961693 0.0615416970 0.0147526973 0.0365675523 -0.0374595676 0.0031864526 0.1021602553 0.0216928912 -0.0993282033 0.1214958956 -0.1022062115 -0.0815769406 -0.1441452631 0.1211874637 0.0476708098 -0.0832483630 -0.0269134565 -0.1057613563 -0.0968185653 0.0863844856 0.0513048972 0.1349264290 -0.1281588884 -0.0713259472 -0.1089572528 -0.1462484098 0.0990588322 0.1121995033 -0.1262894345 0.0973207275 0.0830869912 -0.0707813884 -0.0118308442 -0.0261685498 -0.0276593639 -0.0337791799 -0.0111215038 0.1369220688
0.0046197522 0.0761457703 0.1019571083 0.1186333191 -0.0436077268 -0.1038762334 0.1198840972 0.1303639477 0.0843558173 -0.0821308669 0.0242821254 -0.0894211593 -0.0904659185 -0.0759140677 -0.0494410446 -0.0336244310 0.1326341404 -0.1278751677 -0.0478658543 0.0495621041 -0.0653201864 -0.0662206895 0.1104135571 0.0284128370 -0.1290925699 -0.1363292187 0.1463114288 -0.0757854884 -0.0811127869 -0.0359163453 -0.1389986051 -0.1059924817 0.1232327972 -0.0206821164 -0.0162922401 -0.1271633581 -0.0568013822 0.1026833416 -0.0172333080 -0.0709082570 0.1383037977 -0.1166246434 0.0334456380 -0.1389249146 -0.0089689951 -0.0512851321 -0.1099094005 -0.1122562423 -0.1438847657 -0.0523818258 0.1189235130 -0.1146372223 -0.0549805155 0.0895846651 -0.0775176111 0.1083585367 0.0515442313 -0.0402433838 0.0496829268 -0.0123575660 0.0952612915 -0.0042789255 -0.0460848092 -0.0802610202
-0.1114443886 -0.0815204550 -0.0672829939 0.0501201908 0.0611136966 -0.0993648404 -0.1149149175 0.0900844223 -0.0806804433 -0.0591504975 -0.0824020747 -0.0573597569 -0.0059929699 -0.0214843072 -0.0390307105 -0.0525223293 0.1259505395 0.0948073954 0.0748955112 -0.1024927309 0.0884099416 0.0988524095 0.0364133753 0.0918101213 0.1204139991 0.0822572537 -0.0933210842 0.0595733414 -0.1412670031 0.0554483773 -0.0317597680 -0.0996422997 -0.0600491223 -0.1026132057 -0.0569405509 0.0764762013 0.0878217173 0.0090192536 -0.1227376681 -0.0742038353 -0.0915000259 -0.0089782195 -0.0834375292 0.1286319416 0.1171392199 0.0480339634 -0.1082204316 -0.1008199636 0.1142672126 0.0695985616 0.1262759456 0.0163225059 -0.0132182364 -0.0052842667 -0.0563308141 -0.0864045032 -0.0000616089 0.1410033291 0.1292457268 -0.0414615058 0.1403996150 0.0217253825 0.1183050919 0.0608019344
0.0289786608 0.0453820892 0.0562338879 0.0939226977 -0.1285060520 -0.1422190954 -0.1234605863 -0.0541587044 -0.0655878164 -0.1251108193 0.1394047322 -0.0885478933 -0.0554286636 -0.1158831909 -0.1147454986 -0.0227163106 -0.0388170019 -0.0814091118 -0.0393478688 -0.0404648835 0.0429932314 -0.1216010726 -0.0855351713 0.0976423527 0.0229065009 -0.0839778149 -0.0303000423 0.1349788895 0.1272581519 -0.0627143291 0.1000390384 0.0943838520 0.0291017067 0.0944541621 -0.0142454460 0.1453629894 -0.1307076628 -0.0825392139 -0.0626296543 -0.0573170081 -0.1094757220 -0.1302142403 -0.0573988184 0.0104070687 0.1194849143 0.0347039021 -0.0410889798 0.0266549007 0.0537926088 -0.0808476321 0.0029062325 -0.1074288581 -0.0487649711 0.1113624703 -0.1434588221 -0.0492451846 -0.0797148166 -0.0133184785 -0.0744961817 0.0234048656 0.0513489142 -0.0960561137 -0.1304589692 0.1323284494
-0.1047000479 -0.0024299008 -0.0749049790 -0.1238874114 0.0822569596 -0.0519078315 0.1277932386 0.0010414501 0.0583588035 -0.0514542435 -0.0705207357 0.0551223538 -0.1298458583 0.0564534232 0.0045869425 0.0715690949 0.0435791086 0.1371536858 -0.1202040489 -0.1410668137 0.0427338545 0.0839037900 0.0321759334 0.0194041890 -0.0693233174 0.0839779205 -0.0252536482 -0.1363835683 0.0116349379 -0.1008589592 0.0323812694 -0.0861066636 -0.0997138695 -0.0979821459 0.0020650794 0.0700840806 0.0024976295 0.1287520601 0.0166278284 0.0963364653 0.0279451556 0.1130235800 -0.0194434725 0.0051949457 0.0156917263 -0.1014170728 -0.1070756250 0.0018656651 0.0219977630 0.0115540964 -0.0666047993 0.0384481754 -0.0162608918 0.1452718617 0.0807960223 0.0131728503 -0.0664592443 -0.0067373046 -0.1193309884 0.0431302362 -0.0274049480 -0.1012642738 -0.0760316998 0.0085139895
0.0359000862 0.0429256124 0.0845080448 0.0841887106 -0.0042028765 -0.1035861927 0.0932169094 0.0262146395 0.0218149599 -0.0101072335 -0.1258591669 0.0957808174 -0.1137261467 -0.0489459674 0.1303283894 0.0992932141 -0.0952201865 -0.0848907809 -0.0464375514 0.0645543214 -0.1394438473 -0.0983371496 0.1233512241 -0.1180718453 -0.1062318704 0.1183153025 -0.0404435690 0.0466269954 0.0943388664 0.1299635003 0.0234044660 -0.0674335224 -0.0506435413 0.0011657656 0.1107745962 -0.0022847337 0.0297835382 0.1311220151 -0.1302014278 -0.0804311254 -0.0073353316 0.0563435297 -0.0513437590 0.0872498389 -0.0463481984 0.0792481924 -0.0152174820 0.1421301250 0.1365896838 -0.0781861217 -0.0579246160 0.0809545374 0.0397794004 -0.1113146843 0.0955245273 0.1348338703 -0.1368657290 -0.1074876894 0.0586069096 -0.1082381919 -0.0487873455 -0.0990555838 -0.0680269225 -0.0913284727
-0.0561769836 0.0075571903 0.0495940850 0.0510319488 -0.0471183630 0.0764075039 -0.1346564338 -0.0913499495 0.0778005635 0.1447983211 -0.0375049446 -0.1232957407 -0.0400849281 0.0121910400 0.0854223862 0.1251368911 -0.1325161690 -0.1064577936 -0.1445698545 0.0370473861 0.0562014284 0.0660935655 -0.1071952980 0.0244867234 0.0937254056 -0.0251687173 -0.0312922686 0.0672567379 0.0286113174 -0.0524058393 0.0610893348 -0.1418317889 0.0357667686 0.1159064753 -0.0018025737 -0.0436454401 -0.1141988557 -0.0173353735 0.0595734541 0.0876061942 0.1443506589 -0.0085585948 0.0236492608 -0.0626767500 0.0605591506 0.1161261749 0.0946454762 -0.0976773696 0.0905646131 -0.1341460018 0.0636853234 0.1339618939 -0.0701724763 -0.1172168642 -0.0652465679 -0.1015152407 -0.1130759130 0.0532340033 -0.0612723871 -0.0118912841 0.0769984796 -0.1339306726 -0.0853286124 -0.0389139372
0.0193580862 0.0455405443 0.1189604175 0.1058476478 -0.1263838594 -0.0931324414 -0.0882337591 -0.0005051859 0.0322955707 0.1155194438 -0.0312577212 -0.0509403768 0.0736921407 -0.1137324219 0.0819660185 0.0697477418 -0.0390076834 0.0616891070 -0.0788325670 -0.1097314777 -0.0290370727 -0.0136110062 0.0949457798 -0.0761278476 0.0396793056 -0.1242125834 0.1169382548 -0.1095126002 0.0168020183 0.0318123586 -0.0878870974 -0.0624341060 -0.0142248714 -0.1014903250 0.0576340324 0.0476157658 0.0976944008 -0.0242094596 -0.0388575410 0.0116715871 0.0112198492 -0.0541574335 -0.0084212284 0.0319690192 -0.1130991792 0.0217943897 0.0052262469 -0.1160528753 -0.0324143709 -0.0621810448 -0.1083522651 -0.0511547999 -0.0114689533 0.1144115861 0.0517952620 0.1221494546 0.0604755077 -0.1336090909 -0.1339606188 -0.1426910908 0.0453956582 0.0433677841 -0.0677945796 -0.1262179855
-0.0235682167 -0.1281645250 0.0955966528 -0.0766660003 -0.1074735777 -0.0946726307 -0.1447889493 0.0874610365 -0.0150765408 -0.0499750640 0.1395712669 0.1075285062 0.0857303353 0.0025326846 0.0041903691 -0.0929496260 -0.0753734703 -0.0182019040 -0.0469111038 -0.1451640208 -0.1131063507 -0.0223353941 0.0303343687 -0.0256218455 0.0724451042 0.0210498773 0.0848749193 0.0770322223 -0.0962463148 0.1319803993 0.0414376584 -0.0588455365 0.1130289934 0.0105629922 0.0284521327 0.1419841402 0.0040320746 0.1228987459 -0.0024374469 -0.0396699020 0.1097131372 0.1323552879 0.0886779631 0.0923165042 0.0786176873 -0.1276853956 -0.0412370054 -0.1027263632 0.0985895889 0.0917299370 -0.0960376505 0.1329089361 -0.1399283105 -0.0447741112 0.0827298847 0.0976863084 0.0284807704 0.0915625122 0.0177079010 -0.0039643371 0.0919590326 0.1329828248 -0.0064824261 -0.0967263052
0.0367440698 0.1160295626 0.0436062423 0.0116609691 0.1022444667 0.0902148638 -0.1305847833 0.1199146241 -0.0022879087 -0.0439975165 0.1181604324 0.1269878996 0.0947839951 -0.0448569337 0.0070197682 -0.0851030595 -0.1054228121 -0.1269654937 -0.1028627633 0.1127448432 0.1406401535 0.1022265558 0.0785061460 0.1392374247 0.0610613428 -0.0637426811 -0.0875002193 0.0113833491 0.1327950614 -0.0288527248 0.1411662509 0.1438492119 -0.1256902902 -0.0923558587 0.0715287933 -0.0769555255 0.0200168631 0.0551923658 -0.1160093042 -0.0467778428 -0.1360872632 0.0322106369 0.0800214664 0.0209615054 -0.0627589450 0.0834835576 0.1405907877 -0.1416762383 0.0162136204 0.1037041023 0.0862460003 0.1418930761 0.0096040417 0.1398443957 0.0039743011 0.1136598006 -0.0269438975 0.0269913061 -0.1417167977 -0.0661131108 0.0550609435 -0.1104040297 0.0463163625 0.0843482951
-0.0027897773 -0.1161535084 0.1178410335 -0.1020648597 0.0367360986 -0.1424673201 0.0978965104 -0.0833913323 -0.0561823434 -0.0734238939 -0.0591074537 0.0037638474 -0.0141755759 -0.0748114381 0.0599620052 -0.1405216339 -0.1076401964 -0.0444753625 0.0105896150 -0.0595930067 -0.0928870935 0.1064741057 0.0356269433 -0.0525832939 0.1445226773 -0.1122815464 0.0895389868 -0.1157330964 0.0783052994 0.0713774138 0.0593040212 -0.1432126020 -0.0163715849 -0.0480052964 0.1014469091 -0.1340284163 0.0098514534 0.1059096796 0.0534851587 -0.0871083782 -0.0992145128 0.0575300603 -0.0231833683 0.1404650669 0.1304376304 0.0356811537 -0.0057617273 0.0870980369 -0.0961748749 0.1043404586 0.0436422162 -0.0245964500 0.1052631131 0.0200953876 -0.1209702031 -0.0515163041 0.1142631260 0.1149194807 0.1152372260 -0.0719799145 -0.0044023830 -0.1281176351 0.0883699680 0.1188234584
0.0692384544 -0.0794910493 -0.0452655887 -0.0449902644 -0.1037499332 0.1124524276 0.0536336847 0.0057411223 0.0622843038 0.1189263909 0.1086607285 -0.0244490219 -0.1363098371 -0.1260667591 -0.0769551348 0.0162989234 -0.0937461583 0.0412164000 0.1365777405 0.1068649436 -0.0710428074 0.1045171745 0.0563146855 -0.0443139415 -0.0424506687 -0.0671021322 0.0430598568 0.0682905454 0.1422753666 -0.0272774267 -0.0163251902 0.0193521961 0.0576615342 -0.0333677139 0.1314105348 -0.0301291505 0.0614863672 -0.0486918956 0.1009503923 -0.0166417736 -0.0579283692 0.0120635315 0.1457235458 -0.0956220976 0.0528809970 0.1068962174 -0.0000610406 -0.0402099642 -0.1306169480 -0.0880564983 -0.0976210591 -0.0559514295 -0.0436391377 0.0991925129 0.1226961057 0.0728258575 -0.0417596889 0.1394302348 -0.1315079635 0.0820643352 -0.0683747871 0.0230120303 0.1111362051 0.1323972924
0.2733558638 0.2241394045 0.1542796375 0.3285671918 0.3768427608 0.2381008309 0.1879963834 -0.1196331171 0.1814566940 0.2353799117 0.3700944926 -0.3418538611 0.4606566346 -0.2765942926 0.2984703180 0.3288819751 0.3441811765 -0.2989308287 0.2387085975 0.3987926836 0.1486666793 -0.4329831540 -0.2186414574 0.2504273884 0.0709730431 -0.2304520882 0.2191355980 -0.3815905290 -0.2828510162 0.2255702846 0.0460669281 -0.2101089897 0.1549571660 0.2454095306 0.2317886365 -0.1323142713 -0.4815910173 0.0468787629 -0.2633382462 -0.1674479012 0.6149476746 -0.4768818169 -0.5265306993 -0.1562788274 -0.2037949898 -0.2997796277 0.2289496881 0.1228099034 0.2006505960 0.2223460020 -0.3338540946 -0.4252549162 -0.3740664099 0.1449338674 0.2287452522 -0.3426376719 0.2810277642 -0.2586412981 -0.2567819830 -0.3808410386 -0.3334987877 -0.2186615770 0.0431910886 0.2500930734
0.0319769339 0.3462783141 0.3556695065 0.2751872143 0.4111685924 0.6481367480 0.1402247600 -0.4633192634 0.3024393938 0.2325301886 0.5378497924 -0.5612363474 0.5553433698 -0.3800290961 0.2044688076 0.2165263006 0.3148302514 -0.2335573001 0.4031713850 0.4572586735 0.3844866277 -0.5516318607 -0.2768898607 0.2623201665 0.0895091415 -0.4150992857 0.2378665118 -0.4592649536 -0.0748168234 0.3887466273 0.1839015364 -0.1497472783 0.5721986866 0.1773534058 0.0094970470 -0.1670236708 -0.0434885651 -0.2132566366 -0.3326277957 -0.1427578169 0.2864687699 -0.3115255813 -0.1400590301 -0.3085879474 0.2788190183 -0.3343218965 0.3410447494 0.3196067273 0.1275725737 0.2247309040 -0.3819083212 -0.1817530969 -0.3710018339 0.1076882644 0.4650642751 -0.3712706319 0.3789268752 -0.2677623984 -0.2558809468 -0.4007936760 -0.0985526853 -0.4210093543 -0.2212682007 0.6222796306
0.0038738065 0.1219172179 -0.1521916783 -0.1085564272 0.2612335435 -0.2198591120 -0.0555595423 -0.1749279770 -0.2985788034 0.2716621021 0.1096727242 0.1920618799 -0.1253987953 -0.2631500169 -0.3686424791 -0.2692930881 -0.1042261676 0.0827732616 -0.4714168153 0.1840914371 -0.6283663152 0.1616146747 0.1747423231 -0.0523974426 0.3521416745 0.2696254668 -0.4044585671 0.2650469179 0.1768196468 -0.0068051694 0.0857802021 -0.1421024155 0.0734614671 -0.0885961263 -0.1004887398 -0.2006092677 -0.0101899733 0.3166777482 -0.1793705491 0.3310249407 -0.1661314932 0.2525908138 0.2657591880 -0.1930162920 -0.1294828579 0.2622627726 0.1708583794 0.2258636896 0.6430989664 -0.0226317533 0.2491702790 0.1423308205 -0.0396622806 -0.1860033509 -0.6225793195 0.0835447150 -0.2065086008 0.0640665779 -0.0683551569 0.4517157988 -0.2215053669 0.2508625867 0.0569598493 -0.6272678088
0.0459861991 -0.1331916367 -0.0892704478 -0.0906348049 -0.0255903149 0.0513961000 0.0631681017 -0.0141824199 0.1217828777 -0.1435929953 -0.1317715743 -0.0161939210 0.0966195504 -0.0541986879 0.0708300102 0.0595273351 -0.0272181495 -0.1245667617 0.0420009775 -0.1021278194 0.0775611918 -0.0234194066 0.0397185004 0.0479186256 0.1398701880 -0.1416492100 -0.0152150846 -0.1237037383 -0.0500307483 0.0381289428 -0.1059253943 -0.0435971142 0.0213064361 -0.1257881727 0.0305002465 -0.0488487173 -0.0136836898 -0.1373072356 -0.0216824032 -0.0957796995 -0.0004943375 0.0287687764 0.0059056673 0.1029166929 -0.0565088392 -0.1451529837 -0.1024927070 0.0940056331 -0.1166927603 0.1294725541 0.0336441694 -0.0051091599 0.0523552203 -0.0786476433 -0.0289796848 -0.0396223494 -0.0331463006 0.0224684607 0.1422989168 0.0021750698 0.0249813576 -0.1423257486 -0.1036777986 -0.1152758043
0.1381277807 -0.0138755148 -0.0934483767 -0.1072217504 -0.0566203567 0.1273655281 0.0770304935 -0.0667215283 -0.0681784983 -0.0763971930 -0.0601951741 0.1405726421 -0.0478732664 -0.0811496886 -0.0332245156 0.1173337343 -0.0409270834 -0.0838253850 -0.0205675800 -0.0240534251 -0.0703709569 0.0603561062 -0.1041741086 0.1225232912 -0.1306093863 -0.1246652965 0.0453143207 -0.1173661267 -0.0698754836 0.0043836999 0.1076164355 -0.0511088115 0.0609802002 0.1357988289 0.0065466292 -0.0539964960 0.1045400401 -0.0848510054 -0.1028309981 -0.0908364929 -0.0113841457 -0.0469648183 -0.0740181591 -0.0233218967 0.0653626712 0.0246015217 -0.0450347787 -0.0830680083 -0.0893173093 -0.0165622406 0.0542930657 -0.0302969618 -0.0910802968 0.0272423330 0.1134671369 -0.0091225021 -0.1045016517 -0.0492601667 -0.1422769026 0.0166618758 0.1302020773 -0.0232028124 0.0100371549 -0.0207533322
0.0839908839 -0.1232733569 -0.1001549360 0.1261400941 -0.1335913576 0.0552434525 -0.0088191259 0.0152996144 -0.0593412300 0.0035671201 0.0392498830 -0.0432702488 -0.0628920698 -0.0994252968 0.0513339285 -0.0273167821 0.0799984223 0.0700503021 0.0450392638 -0.1130427222 -0.0066995420 0.1100471697 0.0310363775 -0.1082152697 0.0207593649 0.0761910124 -0.0909354565 0.0837583562 0.0974546438 -0.1121465125 -0.0041656213 -0.0450825169 0.0530783118 -0.0446682938 -0.0711940099 -0.1292702379 -0.0109239104 -0.0546819738 0.0742710013 -0.1439065875 0.1043902710 0.0092178443 0.0366662023 0.0029760007 -0.1105809906 -0.0371676617 -0.1113066549 0.0715269567 -0.0995227848 0.0391706763 0.1084301900 -0.0180676753 -0.1002652029 -0.0123522583 0.1038008045 0.0445949437 0.1058751652 0.0840289614 0.0243495989 -0.1054698188 -0.0785818512 0.1344165627 -0.0250234678 -0.0109509074
0.0125096098 0.0179496198 0.0338421089 0.0500644955 0.1378262454 -0.0883696547 -0.0386521491 -0.0756784696 0.1287379479 0.0543764054 0.0228202171 -0.0078472619 0.0183308666 0.0198645559 -0.0963733778 0.1143912258 -0.0592911856 -0.0667756191 -0.0100009653 0.0501696836 -0.0683366244 -0.0603261346 0.0052057668 -0.1163890429 0.0265003449 0.0239379116 -0.1359786620 0.1330247953 -0.0951019788 -0.0396322203 0.0072522389 -0.0080240598 -0.0102128629 0.1424235820 -0.1227028788 -0.0905063940 0.1425152562 0.0566392682 0.0270290429 0.0899508958 -0.1202268063 0.0907012441 0.0162172094 0.0253216242 0.0759179184 -0.1214301116 0.0428836664 0.0785048725 -0.1025955419 0.1461015400 0.0777476025 -0.0740869560 0.0403576624 0.0192741121 -0.0208473816 0.0067244601 -0.1244615098 0.0382073749 -0.0427837081 0.0312044811 0.0493336897 0.0460892643 -0.0977897205 0.0438177325
0.1249355645 0.0500733346 -0.0810210260 0.0818185126 0.0254192767 -0.0189050464 0.0742558837 -0.1328549933 -0.1286045230 0.0249531939 0.0510927104 -0.0631446702 -0.1230722786 0.0705154451 0.0658079222 -0.1148131351 -0.1001182668 0.0823459894 0.0375718290 -0.0409883402 -0.0317252215 0.0981283818 -0.0766112975 -0.0271325449 0.0365275762 0.1291254459 0.1196405545 -0.1160498574 -0.1142499343 0.1367035619 -0.1433240663 0.0511310231 0.0944975594 0.0560953392 0.1361828938 -0.0407830156 -0.1131224858 0.0478409010 -0.0166298670 -0.1010453470 0.0733319634 0.0873270411 0.0946923804 -0.1215903228 -0.1188720515 0.1039522189 0.0670565587 -0.0366106164 0.1071665586 -0.0113025012 0.1405754408 0.0514497807 0.1028733260 -0.0293786508 -0.0542960774 0.0499665229 -0.0549283446 -0.0993645767 0.0389708782 -0.0598122855 0.1201672705 0.1174563256 0.1022636840 -0.0366667860
0.1406279263 0.1853510611 -0.3652007358 0.2236007326 0.2083134716 0.1480019255 -0.3098747356 0.2827786730 -0.2031395473 0.2840445997 0.1342961101 0.3410139148 -0.2140869530 -0.0849142913 -0.2036045018 -0.1848945380 -0.1480497710 0.2692072766 -0.1016042909 0.1416123693 -0.2461056917 0.2858289521 0.1474603152 -0.0571385708 0.1825338552 0.2937627331 -0.1793788814 0.3137180229 0.0038071907 -0.2627589006 0.2421849823 0.2646620217 0.2413888040 -0.3650582679 -0.1519973703 -0.1834986880 0.0869819139 0.4071903399 -0.2393140096 0.1450563664 0.2566635457 0.2338579141 -0.2538587819 -0.0134443635 0.4366547021 0.1345192941 -0.1310609251 0.1323166879 -0.2043468745 -0.2038380667 0.1698813348 0.0508756559 -0.0110635708 -0.2238983329 0.0388271403 -0.1400359845 -0.1400233734 0.2130086759 -0.1670449309 0.0636979650 0.0155492241 0.0654485934 0.1641021761 -0.2166011748
-0.1385521683 0.0812308914 -0.1254163316 0.0003970456 0.0418859173 0.1291210430 0.1158731655 0.1456834776 0.0945177912 -0.1373383314 -0.1161182390 -0.1104007186 -0.0537346795 -0.1394000158 -0.0432627880 0.0558133317 0.0845717358 -0.0829093813 -0.0648994887 0.1001206119 0.0878979779 0.0329620949 0.1337859061 0.0762247577 0.0929049588 -0.0753316769 -0.0680548405 0.0726831247 -0.0071864338 0.1009111709 -0.1247753518 -0.0502441283 0.0687926709 -0.1318591133 0.0013963227 0.0719365271 0.0718745210 0.1439756681 0.0456924323 -0.1238821220 -0.0924961846 -0.1374498549 -0.1127140679 -0.1180324927 0.1212975403 0.0411792140 0.0257257240 0.1453250955 0.0675480695 -0.1352725167 0.1239475715 0.0935626963 -0.0200360731 0.0633461498 0.1118698471 0.0813048169 -0.0953942134 0.0345736204 0.0948386557 0.1393657724 -0.0734207699 -0.0039451020 -0.0056712446 0.1174991200
-0.0206527791 -0.0900210077 -0.0157530231 -0.0432563397 -0.0210741740 0.1288502678 0.1423810499 0.0232558694 0.0925021507 -0.0894038945 0.1093246992 0.0808369115 0.1125890743 -0.0131262051 0.0269313260 0.1211333310 -0.0060193636 0.1002357872 -0.0996019729 -0.1343556293 -0.0293115483 -0.0837709727 -0.0686250331 -0.1393893674 -0.0368164319 -0.0068821550 -0.1364208764 -0.0576022137 -0.0479120204 0.1160979829 -0.1100622877 0.1187439542 -0.0763555173 0.0313272634 0.0215406093 0.1012946346 -0.1189877710 -0.0302582473 -0.0382902375 0.1015803590 -0.0337905785 0.0641412190 0.0552743687 0.0167375897 0.0175587873 -0.1142057485 -0.1400150097 0.0911867853 -0.0170595459 -0.0668009790 -0.0489977094 -0.0268112286 -0.0425740354 0.0277469995 0.0538842492 -0.0449140998 0.0365388795 0.1085005994 -0.1318231584 -0.0794250162 -0.0110367118 -0.0615909354 -0.0464685624 -0.1221138977
0.0865136072 0.1334794192 0.1235220253 -0.0371659822 0.0099036872 0.1040171581 0.0053522315 0.0199787526 -0.0432875991 -0.1087422092 -0.1313487167 0.0979288500 0.0551880800 -0.1224233299 -0.0835342834 0.0978414270 0.0933294612 0.0783009167 -0.0882628883 -0.0068007982 -0.1083621045 0.1405375816 0.0771463316 -0.0970842104 0.0446675356 -0.0698157037 -0.0327438986 0.1186529817 0.0058799911 -0.0236786806 0.0050032939 0.1135750654 0.0895114863 0.0190732515 0.0820201603 0.0686992327 -0.0088988761 0.0378412419 0.0914436682 0.0055741418 0.0828269751 -0.0938387454 -0.0728466416 -0.0164658282 0.1153054499 -0.0927170107 0.1276128677 0.1265271195 -0.0419702079 0.0096624238 -0.0896160775 -0.1430271751 -0.1187655196 0.0640762007 0.0700244346 0.0894277381 -0.0595773604 -0.0351142502 0.0771064791 0.1202191277 0.0255748331 0.1151251829 0.1391414798 0.0126601861
-0.0858446451 -0.0687422810 -0.1385172342 0.0135966123 -0.0245849916 -0.0061195891 0.0449626977 -0.0329484012 -0.0806211385 0.1152031902 -0.0529384725 0.0424305101 -0.1388633353 0.0028737897 -0.1213191647 -0.0405363250 -0.0987206595 0.0214663910 -0.0107304212 0.0625535519 -0.0499563690 -0.0027698594 0.0417402712 -0.0795960768 0.1081918394 -0.1224518203 0.0617116817 -0.1326473643 -0.0978026580 0.1395479055 0.1307267687 0.1118875782 -0.0528862278 -0.0605962420 -0.1428873302 0.0325800742 -0.0688931754 0.0010945919 0.1071760469 -0.0795240095 -0.1135835999 0.0870067181 -0.0064573639 -0.1007642705 0.0454398909 0.0938083916 -0.0332470438 0.1285170464 0.0641628066 -0.0576941337 -0.0206082473 -0.1199618811 -0.0581924176 0.0988834377 0.0982916825 0.0971165737 0.0609972470 -0.0534794398 0.0515880019 0.0741487312 -0.0227175741 -0.0658164029 -0.0139029808 -0.1312012102
0.0420388987 0.1209404452 -0.1072366997 0.0859342673 0.0211146608 -0.0786231579 0.0642055881 -0.0330808180 0.0514126236 -0.0413512271 0.0775393205 -0.0857028453 0.0793261613 0.0580528433 0.0725526886 -0.1349790596 -0.1353449912 0.0812424240 -0.1123662230 0.0390308807 0.0991194896 -0.0101996250 -0.0183755249 -0.0095590057 -0.0448484277 -0.0205949360 -0.0561097609 -0.0171370217 0.0859997675 0.0022895542 -0.0552213985 -0.1453610171 0.1181715629 -0.1249004859 -0.0303105966 0.0970924311 -0.1241179908 -0.0464271744 0.1026970747 0.0401534298 -0.0112595723 -0.0327569285 -0.0933423134 -0.1365112222 -0.0307734664 -0.1400099986 0.0334938147 0.0251722306 -0.0481068298 0.0539206768 0.1406775828 -0.1397234054 -0.0505705778 -0.0455679041 -0.0582256568 -0.0064156845 0.1137164503 -0.0955781664 -0.1396920305 0.1193566901 -0.0728656829 0.0563366585 0.0552069032 -0.0372649802
0.0233456696 -0.0556001808 0.1438596031 0.1115155744 -0.0007026793 0.0917831876 -0.0568364565 0.1056604706 0.0305642644 -0.0907536731 -0.1203404079 0.0851745633 -0.0511282046 0.0261916333 -0.0172074627 0.0869717299 -0.0033794288 0.0665517576 0.0733881775 -0.0583739935 0.1074268585 -0.0287425827 -0.1176526112 0.0045728593 0.0759451350 0.0385206796 -0.0686363763 0.0542525675 -0.0564104833 -0.0247938415 -0.0137612438 -0.1316791670 -0.0480306421 -0.0312567458 -0.0061834043 -0.0312091405 0.0774400134 -0.1296923052 -0.0099821847 0.0851684221 -0.1246734092 -0.0774028794 -0.0861569504 0.0459733723 -0.0549627401 -0.1178629589 -0.0247749232 -0.0217510916 -0.1187368321 -0.0215495925 0.0686659407 -0.1249314742 0.0660743508 -0.0884172917 -0.0193097076 0.0621879024 -0.0817305450 0.0809107005 -0.0918576963 -0.1450767643 -0.0363762877 0.0662524515 -0.0671625121 0.1101069068
-0.0947611534 -0.1019044487 -0.1427616772 -0.0563419435 -0.0734632718 -0.1303060443 -0.0095439078 -0.0002455253 0.0405529705 0.1298255244 -0.0542984430 -0.0414251739 -0.0661821326 0.1463157357 0.0443278721 -0.0177814803 0.0049705373 -0.1345278350 -0.1401658673 0.0888645239 0.0283696485 -0.0869061294 -0.0705414613 0.1227033690 0.0548904450 0.1055266105 -0.0103011370 0.1248182199 -0.0252601661 -0.0841683642 -0.0067531449 0.0634733385 -0.1204779040 0.0112818406 0.1061770675 -0.0665399097 0.0119480133 0.0553627974 0.0823138335 -0.0478989172 -0.0327955389 -0.0397595515 0.0672971036 0.1357658392 0.0718195710 -0.0763123347 0.0513068252 -0.0971231136 -0.0607732825 0.0811525015 0.0388406521 -0.0212548176 -0.0220502347 0.0884227948 -0.1203947602 0.0586017158 -0.1268516615 0.0286720617 0.0563577652 -0.0768843326 -0.1090597265 0.0357205106 -0.0097521506 -0.0846600868
-0.3238750779 -0.1397258506 0.2259404575 0.1503169609 -0.3410185178 -0.2944203204 0.2535014287 0.3365241011 0.4094709463 -0.2806141372 -0.3505875060 -0.1059528961 0.3260319788 0.2686850412 0.1331591829 -0.4302861320 -0.4042277234 -0.4489753499 0.3369138482 -0.1749126952 0.1215358887 -0.2109385056 -0.5107653447 0.2236047686 0.0849520668 0.1401208242 0.3820830696 0.4552243521 0.2281383640 0.1572866642 -0.1873462842 0.3426624449 -0.3880241407 -0.0593159701 0.2161558191 0.2383363312 0.3270279019 0.2378034041 0.1936548216 -0.3498205211 0.0792996746 -0.1551212803 0.1931310155 0.2759289909 0.2656215832 -0.2816959110 -0.2009900971 -0.3003157725 0.0919696558 0.3990848579 -0.3499368611 -0.0673960049 0.2470853504 -0.2751113922 -0.2351077288 -0.2591188052 0.3664512978 0.4498710761 0.3352172917 -0.2543130324 0.0733222895 0.3200709371 -0.1722382424 0.1539867944
-0.0042222793 0.0550926604 0.0678116896 -0.0532426216 0.0140551785 0.1383417187 0.0679333000 0.0071387593 -0.0936759266 0.0664459493 0.1340630687 -0.0448735211 -0.0138095280 0.0604326274 0.0277168873 -0.0658458435 0.1460045715 -0.1421328730 0.0369656729 0.0750507946 -0.1061199359 -0.0446797212 0.0759515707 -0.1450967481 -0.0574737643 0.1091029736 0.0864099022 0.0082440208 -0.1398690499 -0.1284441873 -0.0400302387 0.0860205671 0.0976516710 -0.0919121677 0.1316522739 -0.0711749753 -0.0396883059 -0.0895563312 -0.0307933664 0.1011382588 0.0967887991 0.0791734410 -0.0030574627 -0.0391631494 -0.0495004492 0.0396692703 0.0231721733 0.0477827887 0.0117803773 -0.0510646132 0.1067409305 0.1348675821 -0.0194132863 -0.0819224939 -0.0029694073 -0.0176382356 -0.0517377483 -0.0283070581 -0.0907613901 -0.0314840750 0.1171691953 -0.1052151537 -0.0140052021 -0.1025132489
-0.0780747078 0.0099953577 -0.1323690002 0.1448736927 0.0573126935 -0.1178254679 -0.1334910323 -0.0601102049 -0.0196863360 0.1070962937 -0.0258993808 0.0107633157 0.1425607623 0.0561428202 -0.0234636186 -0.0895743778 -0.0459090462 0.1321973219 0.0135332585 -0.0259795997 -0.0331291527 0.0476666565 0.1220666332 0.0385882593 0.0138025582 0.0163079489 -0.0363080638 0.0455153553 0.0648527384 0.0719816394 0.0676686928 0.0817045387 -0.0088461869 -0.1198780693 0.1458068193 -0.0212395790 -0.1285395620 -0.0232702148 -0.0726580746 0.0889701519 -0.0394762677 -0.0401324372 0.1435019940 -0.0068800816 0.0270091671 0.1209454649 -0.0039189729 0.0732009827 0.1078330789 0.0612447363 -0.1327930836 0.0928793600 0.0454640438 -0.0147622068 -0.0820453790 -0.0277262798 -0.0207889408 -0.0584191598 0.0855866638 0.1431849021 0.0224223458 0.0502144400 0.0898966488 0.0133960355
0.0377851120 0.0293813562 0.1233511315 0.0827220885 0.0625677376 -0.0788030986 -0.0255540918 -0.1455695982 -0.1058328675 -0.0089450566 0.1210633892 -0.1339123537 0.1291525968 -0.0921317529 -0.1135984699 0.0607662237 0.0265702699 0.0993817549 0.0066776490 0.1454688162 0.0304204244 -0.1201148065 -0.0703613451 0.0428529223 0.0916600902 -0.0243088160 0.0678881277 0.0474645670 0.0253755927 0.0208449291 -0.0750191888 -0.0679537324 0.0037164561 0.0142703251 -0.0869786574 0.0147486529 -0.0219932020 -0.1296275642 0.1076404701 0.0434040594 0.1389616365 -0.1011122759 -0.0589180407 -0.1273655441 0.1015822865 -0.1271113838 -0.1128191902 -0.0486659258 -0.0449294137 -0.0737377933 0.0347170799 0.0884915936 0.0623001546 -0.0647937501 -0.0622472230 0.1244999582 0.1228418167 -0.1248255734 0.0588652269 -0.1122263592 -0.0578296279 0.0521419990 -0.0157834875 -0.0933384274
-0.0331302533 0.0756075500 -0.0777533036 0.1388587051 -0.1252220030 0.0819619396 -0.1090238532 0.0160485538 -0.0140958584 0.0288105675 -0.1130826844 -0.0108420812 -0.1300008448 -0.0894362678 0.1201066942 0.0631751084 0.0984232596 -0.0762671988 -0.0243239538 -0.0579573871 0.1423079273 -0.0777418518 -0.1029096005 0.0536843616 -0.0434456428 0.0772413940 0.0755567043 -0.0213408308 0.0455816952 0.1258879633 -0.1140020179 0.0889769496 -0.1164184562 0.0221918499 0.0682450766 -0.1378910103 -0.0733590126 -0.1310873498 -0.0523504187 0.0471561843 0.0630278066 0.0283511901 0.1192771388 -0.0756097528 -0.0357187406 -0.1004565353 0.1420467089 -0.1100957211 -0.1157686621 0.0630755093 0.1264721466 0.0017183458 -0.0003050372 0.0000465308 -0.1257297647 0.0915202599 0.1389396650 -0.0697896102 -0.0508847379 -0.0982018462 0.0443457670 -0.1202300046 0.1268554614 0.0360977800
0.0889958084 0.0272426390 -0.0907884416 -0.1058694776 0.0604371637 -0.0342441769 -0.0293990145 0.0429395347 0.0173064829 0.0285981695 0.0927236195 -0.0029461141 0.0268243896 0.1197054619 -0.1132986468 0.1402136547 -0.0829759505 0.0946500321 -0.1382722882 -0.0181236958 -0.0179022799 0.0578220247 -0.0118699437 0.0398323868 -0.0102499062 -0.0503852490 -0.0237306403 0.1213554757 0.1285562279 0.0140331302 0.1148248958 -0.1227289176 -0.1080276271 -0.1156923042 0.0244952472 0.0953620741 -0.1061055409 -0.0997279625 0.0613509930 -0.0096712870 -0.0669230070 -0.0801738409 0.1261955656 0.1253538957 -0.1445493087 0.1163366306 -0.1166847177 0.0734761681 0.0767494493 0.0122459697 0.1303029588 0.0203116214 -0.0494626353 0.1104270726 0.1435419948 0.0631925232 -0.0848560933 -0.0614671948 0.0952852414 -0.1103036934 0.0840881754 -0.0166889919 -0.0524786301 0.0078062004
0.0592903558 -0.1295314902 0.0675733065 0.0070471877 -0.0047187410 -0.0789321490 0.0862975193 -0.0125576431 -0.1099622949 0.0173838054 -0.1183505904 0.0468823427 -0.0708820553 -0.0820046968 -0.1257431507 -0.0350565758 -0.1360162673 -0.1179758033 0.1339058838 0.0112746325 -0.0887886508 0.0067184525 0.0675451755 0.0743020134 0.0580741786 0.0743548242 -0.0025312599 -0.1301148262 0.0618804613 0.1115297274 0.0581039032 -0.0875398454 0.1162055846 -0.0981111144 0.1297879507 0.1002545011 -0.1203585371 -0.1383639824 -0.0030826087 0.0339094250 0.0556382766 -0.0672036910 -0.1409055774 -0.0402173212 0.0727998514 0.0303048248 -0.0723055307 -0.1307779085 0.0244484685 -0.1306618976 -0.0674206966 -0.1441849849 0.1266062909 0.1176172722 -0.1322837519 0.0601061467 -0.1224065663 -0.0012531869 0.0967206165 0.0577369591 -0.1435659795 0.0998604628 -0.0081596634 -0.0818878518
0.0014346603 -0.0422830268 -0.0613510452 -0.0627702841 0.0070953374 -0.1079043080 0.0710372031 -0.1407788501 0.0224483619 0.1159628496 0.0155403298 -0.0561169939 0.0597590433 -0.1138887305 0.0375300953 -0.1042760253 0.1088821855 -0.0679189377 0.1024869537 -0.1016754550 -0.0279992500 0.0764553706 0.0337173643 0.0124572194 -0.0202435133 0.0851950438 0.0647389264 0.0773439234 0.0889876384 0.1253117971 0.0478511111 0.0208533670 -0.0349730053 -0.1341300026 -0.0484082548 0.1006539979 -0.0832559198 -0.0677832077 -0.0989727564 -0.0697953552 -0.0515851471 0.0433351116 0.0618792174 0.0673861509 0.1389659090 -0.0241891137 0.1274254961 -0.1385082728 0.0844148192 -0.0273746237 -0.1158393362 0.0846532920 0.0353946564 0.0004670147 -0.0329474609 0.0211640519 0.0474591372 0.0584509447 -0.0135421533 0.0109166954 -0.0164096470 0.0187474062 -0.0780303202 -0.0688322117
0.1191209778 0.2474118278 -0.0484293054 0.0117157850 0.0000169315 0.2066771863 -0.1398436702 0.4043337936 -0.3211428798 0.1493606597 -0.0195085131 0.3159857701 -0.0863768963 -0.2135145298 -0.1260173107 -0.1431459914 -0.1918437033 0.1315923201 -0.3655287481 0.0548136466 -0.2862054505 0.1765590397 0.4446429847 -0.1615541611 0.5248477625 0.1070647800 -0.1301800345 0.1235633258 0.0004175317 -0.0306675276 0.2927781028 0.1799540596 0.0101559143 -0.4035635984 -0.0882691438 -0.0675197550 0.3548640137 0.4334758547 -0.2606200993 0.1974697668 0.3916460734 0.2527614288 -0.2572870480 -0.0452885119 0.2430161081 0.3239832765 0.1661831144 0.2371964094 -0.2969080299 -0.1948611364 0.1783493819 0.2951503915 -0.1747354896 -0.2322034222 0.0688704308 -0.3563650480 -0.3298574361 0.3520354234 -0.0140073084 0.1803363509 -0.1488502369 0.0611564410 0.1478903228 -0.1403944843
-0.0150498062 0.1140507682 -0.0680406837 0.0772089319 -0.0984284854 0.0835989460 -0.1273914501 0.0800406954 -0.0145027693 -0.1311186153 -0.1163627726 -0.1074277528 0.0615649657 -0.1004216535 -0.1135601046 0.1136109657 0.0828625409 -0.0400986341 0.0063376348 0.1052245330 -0.1216208990 -0.1282550886 0.0646368566 -0.1461945758 0.1329120702 0.0915572856 0.0867477435 -0.0830437302 0.0221842481 -0.0534093798 -0.1006231196 -0.0573358464 -0.0777293870 0.0819769279 0.0069031939 -0.1437588514 -0.1335741050 0.0480857318 -0.0920990867 0.0346431152 0.1312681475 0.1356908394 -0.0712799267 -0.0239429949 -0.0541773687 -0.0415250963 -0.0018577773 0.0897843491 0.0237781789 -0.1319976820 -0.0162199480 -0.1222543297 0.1103277081 -0.0109414502 -0.0529644558 -0.1109712115 0.0920317844 0.0048049306 0.0342416982 -0.1136268209 0.0396074121 0.0128585988 0.1355236156 0.0092947002
-0.1460915595 0.1032997353 0.0327647662 0.1247976272 0.0768108121 0.0201230792 0.1202693240 0.1113066191 0.0472093565 -0.0834539984 0.0819582347 0.0258281296 0.0695273840 -0.0773015293 -0.0147187418 0.0978735771 -0.0518038123 0.0172321501 0.0268654866 0.0620766639 -0.0650009443 0.0842360938 0.0374024519 -0.1090899229 -0.1305059365 -0.1078359600 0.0008000151 -0.0584554020 0.1224574789 0.1161269801 0.0542949671 0.1329314695 0.1412004924 -0.0243520251 -0.1423535041 0.0382534512 -0.0166292967 0.0026261547 0.0710342947 0.1239922695 -0.0897599424 0.0994734749 -0.0491632948 0.0013979387 0.1448188865 0.0246401241 0.0099440100 0.1225017475 0.1248519168 -0.0451627396 0.1019769400 -0.0933643717 -0.0435812673 -0.0696226086 0.0422719258 0.1411381562 -0.0848713341 -0.0626236039 0.1321162611 -0.1408446354 -0.0105622824 -0.0526750865 -0.0859957013 0.0312417975
0.1255402542 -0.0133987284 -0.0771308863 -0.1047420438 -0.0887598711 -0.0639518948 -0.0784009229 -0.0711481693 0.0641039584 -0.0412817211 0.0898552239 -0.0694808495 0.1322955298 0.1392864800 -0.0990601956 0.0314278425 0.1380092040 -0.0419352171 0.1142302250 0.1106999062 0.1045988165 0.0976988871 -0.1279870009 0.0368356118 -0.1321066920 0.0346715193 -0.0910992659 -0.0218968434 -0.0561508818 -0.0036142363 0.1189682252 -0.0988967496 -0.0234150654 -0.0897479626 -0.0117622980 -0.0599833403 -0.1155402026 0.1094714061 0.1033498833 -0.0852464364 0.1093471161 -0.0668864085 0.0903069068 -0.0069518156 0.1345726816 0.0284697917 -0.1245249424 -0.0101414946 0.0594862456 0.0990881566 -0.1067695075 0.1104959932 -0.1236789408 0.1080132868 0.1350784731 0.1005829865 0.0683042419 0.0873364908 -0.0779695144 0.1346549240 -0.1373045168 0.0538841566 -0.1368901880 -0.0874315345
0.0760916767 0.0367320182 -0.4006743228 0.1503343130 0.2559106485 0.0406915717 -0.1993004750 0.1875163952 -0.2171641419 0.1182134632 0.1814321923 0.1749342369 -0.0924442239 0.0305196806 -0.2064837393 -0.1612237273 -0.2836397719 0.2594769484 -0.1271746966 0.0231571386 -0.3295444974 0.2769124799 0.1355398700 -0.1672004966 0.1218556886 0.0440518713 -0.0916490213 0.2120775024 -0.1237531515 -0.2450975918 0.2405261654 -0.3245617736 0.0923993991 -0.1300332619 -0.1846724139 -0.2739700346 0.2272935231 0.2200203841 -0.0488240412 0.0472688198 -0.1980407491 0.1916280457 -0.0008657617 -0.1264639190 0.0655121673 0.2090091915 0.0227076909 0.2177388110 -0.0711725879 -0.4368692743 0.1041954602 0.1621621773 0.0057168308 0.2233243937 -0.0394985858 0.0047895642 -0.2672503868 0.2334540340 -0.1225007712 0.2728491951 0.2258262000 0.0572643849 0.1348640116 -0.2306654360
0.0720164067 -0.0006251055 0.0690109435 -0.0171323428 -0.0964284322 -0.0350305394 0.1436498938 0.0411577637 0.0186849979 -0.0166079663 0.1204171606 -0.1047328982 -0.0650514145 -0.0389347103 0.1142580395 -0.0826638699 0.0460199331 0.1132726880 -0.1339784005 0.0499018933 -0.0360109914 -0.1404079365 0.0358002137 -0.1437035774 -0.0112696657 0.1043522595 0.0175686076 -0.0962023489 0.1366388547 -0.1175381063 -0.1159718465 -0.1448612821 -0.0140031514 0.0706336501 -0.0735998959 -0.1117733311 0.0090597462 0.0425624980 0.0751917625 -0.1079630548 0.0861767006 -0.1198010388 0.1094067271 -0.0582779781 -0.1354674794 0.0291119306 -0.0773004778 -0.1461842076 -0.0284661949 -0.1009294074 0.0416963660 0.1106874151 0.1377512034 0.1266722218 -0.0394325415 -0.1452537649 0.0531567767 -0.1076902410 0.0258673766 0.0598404633 0.1397370829 -0.0874425389 0.0673749436 0.0817551050
0.0630971476 0.1272196919 -0.2810496820 0.2058843010 0.0888574164 0.1226528533 -0.3118791332 0.3727868131 -0.1116330665 0.2355523046 0.1011598769 0.2354306078 -0.0509044940 -0.2231738962 -0.2371161074 -0.1381560372 -0.1047818885 0.2277773436 -0.2368599962 0.0717748421 -0.1517358406 0.1556823498 0.2842406911 -0.0614612732 0.1360531991 0.2825880035 -0.2468269265 0.1982592187 0.0336366357 -0.0970269559 0.1830357322 0.3414554544 0.2473398357 -0.0901623614 -0.0977551899 -0.1458260247 0.0968308038 0.5015967136 -0.0952600335 0.1883394437 0.3432737217 0.2884225711 -0.2930196759 -0.1200729470 0.3501865957 0.2309831573 -0.0904396967 0.1308142556 -0.1752054040 -0.2674593498 0.2454659114 0.0735519388 0.0827654041 -0.0228249934 0.1839109143 -0.0635537533 -0.0851570299 0.4143940540 -0.2249772385 0.2652167009 0.0452026914 0.0311455003 0.1849251873 -0.1498214199
0.0972098293 -0.1382694305 0.0297668249 -0.0865816630 -0.0582599356 -0.1045813455 0.0684628990 0.1322046429 0.1446021523 -0.0103356803 -0.0655251416 -0.1407510210 0.1436786604 0.0795068741 -0.1361650169 0.1248324984 0.0763795137 -0.1414731955 0.0671600726 -0.0716717133 -0.0645381688 0.0214982827 0.0595832668 -0.0400885563 0.0863515479 -0.0652402907 0.0139472471 0.0707907315 -0.0820795860 -0.0705945453 0.0071410521 -0.0728941725 0.1013642072 -0.0894268860 0.0921263295 -0.0927312393 0.0677896647 0.1445856268 -0.0751701830 -0.0119748606 -0.1169814836 -0.1220951773 0.1191220040 -0.0003559848 -0.0577990446 0.0531819019 0.1138388351 0.0042207904 0.0842119092 -0.0438311125 -0.0209083805 0.0206167205 -0.0742592121 0.0649259251 0.1210889271 0.1358900224 -0.0874936580 -0.1294009813 -0.0267941470 -0.0731311423 0.0598431476 0.1336031232 -0.1398198065 -0.1356965503
0.0367490736 0.0666797261 -0.0044689414 0.1460470349 -0.0817019960 0.0999815887 -0.0898592992 0.0906881803 -0.1234373206 0.1160096468 -0.0836624433 0.0154020508 0.0393526744 -0.0838176718 -0.0551431376 -0.1441290383 -0.1186997640 -0.1006025451 -0.0499294599 -0.0236667009 -0.1447427999 -0.0315239892 -0.0915313407 0.0777445552 -0.1129201403 0.1142092655 -0.0321751851 -0.0162073986 -0.0681105056 -0.1229240171 0.1096975663 -0.0014215773 0.0107520968 0.0324429045 0.1211359756 -0.1319062569 0.0695707772 0.0088097100 0.0465111942 0.0212777823 0.1032462354 0.1157615302 -0.1029833229 0.0596267340 -0.1223145283 -0.1314220130 0.1201457071 0.0587814609 0.0341313570 0.0934570966 -0.1396039783 0.1334542841 0.0569500481 -0.0221973332 0.0543152157 0.0304572669 0.1443752702 -0.0497792831 -0.0304940224 0.1150674082 0.0760796663 -0.0492772592 -0.0105855650 -0.0595432047
0.1278640498 0.0752038187 -0.0256306015 0.0297061607 -0.0560578168 0.1221442187 0.1457437113 0.0249795934 0.1214663145 -0.0839764516 0.0803323127 -0.0110198892 0.0077679558 0.1267572604 0.0792404828 0.1423163589 -0.0525503083 0.0950201896 -0.0195556761 -0.0237482402 0.0821723310 0.0243064087 0.0216224911 -0.0018010815 -0.1370123686 -0.1359534537 0.1314779778 0.1106109172 -0.1425853855 -0.1448498280 0.1061339803 -0.1026470267 0.0124621145 -0.0599773003 0.0362985597 -0.0144304469 -0.0287386134 0.1324431284 0.0213313325 0.1390865905 -0.0126858694 0.0831233691 -0.1427555626 0.1197112132 -0.0977435976 0.0273406587 -0.0793940743 -0.0262798530 0.1411790869 0.0108816330 0.1164951781 0.0380179002 -0.0833984898 -0.0167799790 0.0464431465 0.0649563577 -0.0186331482 -0.1054407132 -0.0393716093 0.0393583727 -0.0789960985 0.1375622296 -0.1277133818 -0.0638242210
-0.0146263728 0.1156377541 -0.0104698500 -0.0250932479 -0.0992161500 -0.1290516340 -0.0025238376 -0.0003188478 -0.0119612792 0.1156110723 0.0904974946 0.0354313524 -0.1458350418 -0.0266794575 0.1290050660 0.1354015656 -0.0738726710 0.0529763794 -0.0954459993 0.0662215451 0.0450936955 0.1145256712 -0.1086796095 0.0060357456 -0.1074857544 0.0339636124 0.0736663777 -0.1402101852 -0.0618953061 -0.0398413410 -0.0689114350 0.1434818414 0.0177584706 0.1258187789 -0.0391771991 0.0597738846 -0.0157653781 0.0703236515 -0.0703197202 0.0772463359 0.1087223956 -0.1359216215 0.0606725867 -0.1179538174 0.0858969496 -0.1089147718 -0.0565661602 0.0521446257 0.0833379475 0.1444176978 -0.1248717940 -0.0161758807 0.1353909113 0.0203572963 -0.0956951122 0.0039753216 -0.0150582225 -0.0280454602 0.0004984490 -0.0531814570 -0.0144901097 0.0057423486 0.1156868287 -0.0104965053
0.0654695725 0.0737076845 -0.1944016056 0.2743286113 -0.1022146053 0.3910223361 -0.3278178386 0.4418292960 -0.1676408665 0.0372796969 0.2629953907 0.2614650002 0.1202486456 -0.1456912974 -0.0851859684 -0.0516537499 -0.1686518973 0.2783637194 -0.3501182488 0.1771979204 0.0009369328 0.0760087800 0.0280746339 -0.1313430164 -0.0506083911 0.0101617625 -0.2694964009 0.2602001257 -0.2602581622 -0.3067125895 0.2679516725 0.2085678074 0.1397200574 -0.2150469894 -0.1813883992 -0.1435124291 0.2904730187 0.1965829006 0.0257319667 0.2462230423 0.6212144995 0.1703757272 -0.3930145207 -0.1637297435 0.4759375797 0.0793273627 0.1378611478 0.0765172041 -0.1831916288 -0.0367037046 0.1324031014 -0.0652351879 -0.0307363398 -0.1031184391 0.4206510280 -0.2932551000 -0.2342360103 0.2216739115 -0.0142150697 0.0044436523 -0.1109653815 -0.0638399935 0.0524358348 -0.0873158595
0.0071907731 -0.1454717645 0.0760874405 -0.1046602493 0.0084804393 -0.0804349301 0.0053733761 0.0540359986 0.0326894219 -0.1342360583 0.1265793672 0.1166900608 0.0320764115 -0.1134568154 -0.1096242779 0.0877662709 0.1022625821 -0.1010590817 -0.1148982849 0.0144593651 0.1461416066 0.0110239042 -0.0313656281 0.0796559333 0.0867591091 -0.0706531409 -0.0527068522 0.0020546714 0.0731990911 0.0824175709 0.1284119066 0.1427883219 0.0202880438 0.0853009154 0.0138816969 0.0092890400 0.0922559913 0.0341541319 0.1066897911 0.0939645702 -0.0928944060 -0.0176253751 0.0134419699 0.0841882426 -0.1323450676 -0.1291311854 -0.0437782287 0.0661167658 0.0610406185 0.0961715233 -0.0238239338 0.1159633504 0.0560292088 0.1259667994 0.1291722929 0.0237439376 0.0747138762 0.1347222751 0.1040110683 0.1044670142 -0.1096430926 0.0480876552 0.1231205842 -0.0719072623
-0.1391925890 -0.0331128667 0.1182523396 -0.0455561168 -0.1293210922 -0.0385014926 -0.1172059260 0.0927960484 0.0206824233 0.0430985884 -0.0422196282 0.0208282684 -0.0662400113 0.0153914224 0.1312931060 0.1023006953 -0.0721724391 0.0627636155 -0.0186214692 -0.0128788146 -0.1207027250 0.1440693225 0.1039369288 -0.0376244227 -0.0331692835 0.1277704671 0.0722567177 -0.0387047566 0.0208914596 -0.0042547342 0.1270240373 0.1287794176 -0.1132423475 0.0563215215 0.1219129941 0.1434333821 -0.0520183680 -0.0639085860 -0.1158066800 0.0180613115 0.1234306464 0.0501611871 0.0200703607 -0.0584294923 0.0126976523 0.1158113505 0.0468007769 0.0042813267 -0.0197701284 0.1402125822 -0.0266994985 0.0359239254 -0.0070875579 0.0905737320 -0.0849502355 -0.0149603271 -0.0056613220 -0.0044991332 0.1180914181 -0.0058498222 0.0228408317 -0.0964373216 0.0264692914 -0.0973589554
0.0368290603 0.1079802406 0.0666596558 0.1130615133 0.1178031084 0.0604279942 -0.0250380039 0.0026379578 0.1140961015 -0.0070306486 -0.1396846303 0.1201407866 -0.0764342752 -0.1416950118 -0.1041488945 -0.0182101710 -0.1405785433 0.1226181659 0.0432036376 0.0720635632 0.0764406831 0.0067626679 -0.0499943271 -0.1224143577 0.1404093938 0.0048817181 0.1348942041 -0.0842606516 -0.0856667040 -0.0564901548 -0.0323185947 0.0319561406 -0.0302912117 -0.0908377946 0.0112173513 -0.1030184511 0.0365578400 0.0351393995 -0.0657310913 -0.0888528652 -0.0727048588 0.0406431462 0.0563996169 -0.0779513793 -0.0352528759 0.0260168656 -0.1250323657 0.1390066947 0.1228955738 -0.1458118239 0.1322975108 -0.0435192656 0.0897960782 -0.0575928253 0.0159828970 -0.0353564065 0.0086288158 -0.0745245395 0.1261201514 0.0573972885 -0.0446783008 -0.1112230745 -0.0815438775 -0.0232772989
-0.0628641840 -0.0217422976 0.0901505930 -0.0894401529 -0.0064720489 0.0184370905 -0.1006406786 0.0385464894 -0.0077694561 -0.0018494236 0.0833341782 -0.0386305501 0.0800094617 0.1112890397 -0.0323157378 -0.1127049444 0.1079444252 0.0580968602 0.0958298470 0.0212118724 0.0042047196 -0.1132516091 0.0505722483 0.0057675488 0.1456809195 0.0432664319 0.1229121399 0.0155778383 0.1186779706 0.0699608206 0.0571056177 0.0413237595 -0.0303862845 -0.0468135153 0.1431837910 0.0512790536 -0.1078594272 0.0025313259 -0.0066814767 0.0927061269 0.1101812032 -0.0898231205 -0.0715312599 0.1408780286 0.0097910018 0.1176593340 0.1100199377 -0.0890303714 0.0538178759 0.1204327247 0.1144077435 -0.1016445121 -0.0279298441 -0.1103926435 0.0183650021 0.0844560681 0.0710711034 -0.0862066117 0.0054103425 -0.0622543600 -0.1306993279 -0.1335533045 0.0817397534 0.0913441554
0.1107444770 -0.0366510501 0.1061832457 -0.0964184712 -0.0910987271 -0.0695191835 0.1152136661 0.0920350090 0.0818921412 -0.1263220521 -0.1014375698 0.0943987614 0.0980744924 0.0639262744 -0.0685439759 0.1462899441 0.1282432880 0.0384573943 -0.0991815512 -0.0360784400 -0.1419613596 -0.1299860246 -0.1050122505 0.1263253843 0.1150858628 0.0011978156 0.1362680696 -0.1191398620 -0.0006192571 0.0220428893 -0.1248689635 -0.0583290137 0.1457517093 -0.0347808556 -0.1219311404 0.0505880061 -0.1311999431 -0.1007734390 0.0314482897 -0.1052816595 -0.0988977205 0.0315884714 0.0548102928 -0.1368702559 -0.0232446655 -0.0812289878 0.0264998349 0.0381877150 0.0538846314 -0.1326220946 -0.0816465870 0.0331413843 0.1193153711 -0.0957652952 -0.0332606188 -0.0892208696 -0.1197659035 0.0471118446 -0.1012129421 0.1404803544 0.1274728754 -0.0426221691 -0.0091698923 -0.0607432038
0.1344946218 0.0325772095 -0.0314199196 -0.0447449888 -0.1183807485 0.1238250196 -0.0454061010 0.0937960867 -0.1321102766 -0.1184658366 0.1173768028 -0.0493838861 0.1224386505 0.0314265375 0.1146730599 -0.1002148290 -0.1426261470 0.0834518403 0.1396141270 0.1405857621 -0.1058073204 -0.0481410639 -0.0404809212 0.0891567442 -0.0291499240 -0.0623364449 0.0134525400 -0.0950483999 -0.1141850442 -0.0285253377 -0.1201243842 -0.0481782840 -0.1175024938 -0.0663528993 -0.1071493088 0.0737381029 -0.1160143751 0.0855454284 0.0127403596 -0.0225184656 -0.0292238864 0.0495755244 0.0274262055 0.1099350161 0.0824199896 0.0532980206 -0.0414692476 -0.0459119914 -0.0851478363 0.1079662074 -0.1414075279 -0.0897342523 0.0168309742 -0.0159165094 0.0690726933 0.1183282446 -0.0749235539 -0.0537862441 0.0344844144 0.0209278372 0.1395204714 -0.0099919236 -0.0710050018 0.1297952429
0.0489465518 0.0953855814 0.1274470451 -0.0631471397 -0.0280667744 0.0738853271 -0.0005633777 -0.1017794098 -0.1080573326 -0.1249830947 -0.0324617156 -0.0378563079 0.1307782346 -0.1303172591 -0.1354322198 -0.0056624016 0.0986307742 0.1033373602 0.0123614885 0.0434246487 -0.0475573040 -0.0491386856 -0.0319375227 0.1258806189 0.1191240613 -0.0281038257 -0.0488722744 0.0807379115 0.1339162839 -0.1375385284 0.0821784766 -0.1336682206 0.0305949686 0.0691081978 0.1158551460 -0.1106688916 -0.0877423362 -0.0528723441 0.0990421528 -0.1393346187 0.1396218533 -0.0030092531 0.0757910049 -0.0905904963 0.1413978765 0.0645051449 0.0776051030 0.0169011212 0.0630351020 -0.0155294394 -0.0898017948 -0.0920110842 0.0839448744 -0.0166518233 0.1446529771 -0.1034268458 -0.0230350016 0.0470728553 0.0860154557 -0.1208399181 -0.1415062987 0.0037782333 0.0240251863 0.1240440581
0.0632585115 -0.0929016006 0.0866904342 -0.0870987678 0.0452088149 -0.0526247543 0.0031430467 -0.0906809061 -0.0726529648 0.0995975884 0.0211108754 0.1326907540 0.0994659352 0.0779470643 -0.0533195765 0.0514718910 0.0438746212 -0.0649808484 -0.1126045387 0.1318782184 0.0896601368 -0.1148163985 0.0111241581 -0.1249960389 -0.0286068247 -0.0365170619 0.0432677799 0.0191688366 0.0543711717 0.1387135149 -0.0429546061 0.1283526848 0.0381287626 -0.0745860981 -0.1418139625 -0.1145518314 0.0325548249 0.1288685047 0.0482209770 0.0728795883 0.0782723337 -0.0735033326 0.0900010314 0.0248227333 0.0179228093 0.1230593574 -0.0378670886 -0.0488868223 -0.0356009195 -0.0287401680 0.1157739789 -0.1092746786 0.1359946799 0.0537052471 0.0135069589 0.0257900714 0.0434889902 -0.0102067647 0.0887885332 0.1346569216 -0.0134014147 -0.0631116995 -0.0171597605 0.0310514019
-0.0725142147 -0.1145622698 -0.1003114593 -0.0071673737 0.0341622827 -0.1129639288 -0.1064548644 -0.1184025805 0.0657635509 -0.1375777035 -0.1070969079 -0.1432442791 -0.0748343706 0.0298414300 -0.1397431512 0.0845072768 0.0981360957 0.1198750716 0.0729258531 0.0800568620 -0.0104058648 0.0591654295 0.0646373627 -0.0676532827 -0.0107531952 0.0261230832 0.0708881030 0.0867715874 0.0437242511 0.0436949059 -0.0282744767 0.1112022571 -0.0430696120 -0.1228718318 -0.0574276227 0.1371898198 -0.0319278511 -0.0047631866 -0.0103801485 0.0897643568 -0.0427990318 0.0758849070 -0.0311277672 0.0424169687 0.0795773857 -0.0971521307 0.0077630179 0.0778211150 0.1234112420 0.0009758874 0.0056581533 -0.0929376027 0.0561019737 -0.0727202315 0.0203093210 0.0768274823 0.0336258616 -0.0664648990 0.0154029593 -0.0871766193 0.0463124952 -0.0129790753 0.1353121045 0.1136011131
0.0137837158 0.0638247381 -0.0464768859 -0.0567030744 0.0963201375 0.0997514669 -0.0894854278 0.0198141271 0.0310522621 -0.1100164750 0.0680332124 0.0207508605 -0.0196104737 0.0275692455 -0.1135812706 -0.0726559363 0.1388016666 -0.0607550215 0.0696087624 0.1414772198 -0.1069861062 0.0404168296 -0.0946639569 0.0978281136 -0.0011477530 -0.0618284726 0.0700258971 0.1296517627 0.0571252424 -0.0368266832 0.0363185100 -0.0597209427 0.1130660932 0.0828038814 0.0289645376 -0.1085051253 -0.0613912927 0.1355111266 0.0730721812 -0.0180442314 0.0464490793 0.1029949790 0.0041416990 0.0254015587 0.0062665407 0.0483618288 0.0504853321 -0.0162785145 -0.1384541284 -0.0632476543 -0.0808948394 -0.0927782591 -0.0675772571 0.0801910144 0.0739521532 0.0791366737 -0.1278021816 -0.1428267007 -0.0796442915 0.0322059133 -0.0725947401 -0.0697301231 0.0842444267 -0.0057264115
0.0704845006 -0.0651049941 0.0588158875 0.0883926177 -0.1265263241 -0.1361932245 -0.0785015441 -0.0837350908 -0.0043069348 0.1182838891 0.0164691198 0.1330680268 -0.0101081658 0.0335847564 0.0227048073 0.1079253200 -0.0714699204 0.0044307091 -0.1258914926 0.0792438742 -0.1112172544 0.0589018896 0.0448742760 0.1088816005 0.0993555299 0.0826617144 0.0289384641 -0.0304878191 0.1446074063 0.0876887733 -0.0896979333 -0.0037106735 0.0755579237 0.1174254705 0.0944098571 -0.0582753540 0.1102679200 0.0577270566 0.0768190614 0.0845391459 -0.0375827404 0.1117181152 -0.1210886166 0.0138746093 -0.1038753527 0.0035295662 -0.0390907282 -0.1330597410 -0.1444304969 0.0773949643 -0.1156688154 -0.0022654663 0.0217390078 -0.1306599170 -0.1114977048 0.0930952962 0.0739369020 0.0788960789 -0.0492250921 -0.0682333893 -0.0553477003 -0.0145131570 0.0474038252 0.0627680457
0.0751895737 -0.0608823089 -0.0976442367 0.0588658202 0.0587489292 0.0897335665 0.0900083134 0.0129409194 0.1169219849 -0.0274307201 -0.0730033545 -0.1407159597 -0.0045387118 -0.1356856275 -0.0580942897 -0.0533795290 -0.0656434073 0.1349951927 0.1115642443 0.1352058369 -0.1241358327 0.1052651469 0.1022828187 -0.0792012796 0.0752945841 -0.0895498251 0.0413234342 0.0137744109 -0.1461254308 0.0153549602 0.1182606049 0.1330171920 -0.0933402446 0.1429076917 0.1323292416 0.0024792219 0.0607840092 0.0339562115 0.1345903765 -0.0640055821 0.0442782714 0.0980871161 0.0267535295 -0.0194711578 0.0715800806 -0.1184672352 -0.0132479766 -0.1347858977 0.0339364570 -0.1070918460 0.1104514752 -0.0102059195 -0.0475584221 0.0265714775 -0.1460393408 -0.0744581235 0.0109329381 0.1427451623 0.0291019475 -0.0732235298 0.1130460144 0.1163442810 0.0314736688 0.0938099677
-0.1186279391 -0.0312841020 -0.1152603823 0.0462367984 -0.0251256969 -0.1279610966 0.1432830722 0.0590477280 0.0979200951 0.0277616837 -0.0036090165 -0.1189675416 -0.0000573110 0.0615956711 0.1132630854 -0.1327035779 -0.0908303610 0.0783894201 0.0015277499 0.0273630243 -0.0299867174 -0.0467466917 0.1152381061 -0.0496057079 -0.1254330516 -0.0164118926 0.1093754515 -0.0443538755 0.0202526715 -0.0317773074 0.0176061817 -0.1352243296 0.0328692016 -0.1458122212 0.0441401683 0.1009673002 0.0760156978 -0.1195971110 0.1052488364 0.0878095393 0.0838326288 0.0582866640 -0.0005071631 0.1223102199 -0.1195348580 0.0960740170 0.0734901789 0.1172944299 -0.1417341478 -0.0349426079 -0.0010744801 0.0644002635 -0.0592163432 0.1364566402 -0.1450052994 -0.0431079900 0.0488338474 -0.0125568046 -0.1224351526 -0.0709415934 0.0570174577 0.0521547620 0.0348986918 0.0382325019
0.0553291774 -0.1357141266 -0.0353487008 -0.0946242500 0.0320749124 0.0652738896 0.0903813781 -0.1099158141 -0.1309072758 -0.0668295131 0.0307760973 -0.0308987215 -0.0246387339 0.1137113564 -0.0305586820 -0.1407252709 0.0634265016 -0.1025177433 0.0957540627 -0.0833687447 0.0352431027 0.1058998552 0.0512522133 -0.0005821889 -0.0570100634 0.0493056580 0.0429357597 -0.0650654415 0.0221124469 0.0986172485 0.0661446589 0.1303804836 -0.0674748739 0.0911308009 0.0235877061 -0.1306319383 0.1351820248 -0.0610996508 0.0443712820 0.0822685848 0.0531183653 -0.0023725343 -0.0373765985 -0.0958513416 0.0064936598 -0.0255914850 0.0546646920 -0.1107613861 -0.1098292894 -0.0819454987 0.0118310382 0.1168717228 0.0621441179 -0.0253951071 -0.0757267264 -0.1361363269 -0.1074072595 -0.0086080032 -0.0161534436 -0.1296950006 0.0972860056 0.0934367574 -0.1369910910 -0.0288959234
-0.0314808740 -0.0655989865 0.0840452748 -0.0307704440 -0.0835747317 0.1135443826 0.1203695927 0.0780105823 0.0953485156 -0.0171346092 -0.0039687585 0.0821380449 -0.1425367604 -0.0897260170 -0.0793057492 0.0484545331 -0.0923579640 -0.0274457122 -0.0576289841 -0.0932015394 0.1407331503 0.0413861976 0.1443910726 -0.1059620698 -0.0146576496 0.1142493096 -0.0506717067 -0.0132799281 -0.1304692853 0.0348679425 0.0133353055 -0.1261750822 -0.0790800871 0.0878605721 -0.1277932378 -0.0627495453 -0.1309948143 0.1433123363 0.0919480763 0.1229278945 -0.1288169736 0.0042766422 0.0475850150 -0.0580463060 0.0738373114 -0.1018350012 -0.0019926050 -0.1043995755 -0.0651267287 -0.0232583633 0.1356363996 0.0639729315 0.0603661231 0.0736678793 0.0814748682 0.1057310498 0.1406450003 -0.0642295775 0.0578629735 -0.0255943415 0.0605970395 -0.0046510080 -0.0023452010 0.0429069140
0.4037138708 0.0718544695 0.1539730347 0.2677529243 0.3988070397 0.2990294318 0.2391388673 0.0031226684 0.2429445096 0.1164545458 0.2521174731 -0.4257319105 0.4138468330 -0.2303289027 0.1508916610 0.3299905623 0.2453266525 -0.3885919366 0.2015325061 0.2820629503 0.1775296542 -0.5022348850 -0.1265723022 0.3410523251 0.0838199118 -0.1605907714 0.2125882362 -0.3725350322 -0.2605271023 0.3799731908 0.2772696707 -0.0827673356 0.1286519127 0.1971464005 0.3188127386 -0.2839359084 -0.4686707206 0.0143590433 -0.2667634127 -0.3576740210 0.6390669923 -0.4115523041 -0.3473868465 -0.1397480480 -0.2032295500 -0.2649907209 0.2300593768 0.1766672299 0.2063516715 0.4202146880 -0.1393906256 -0.3245020809 -0.4240932734 0.2863097254 0.1272461724 -0.3173016820 0.3074154505 -0.4521273036 -0.2344759620 -0.2569598124 -0.2675858379 -0.3117494977 0.0699310409 0.2658007637
0.4266781029 0.1085048343 0.3223137921 0.3203848064 0.2077022610 0.1111944788 0.0690333370 -0.2156558128 0.2421973765 0.4042877061 0.3091682542 -0.2603317340 0.2644981526 -0.2726928466 0.4103374686 0.2794689569 0.2835868077 -0.3960682434 0.2554231571 0.3769042916 0.0689849167 -0.4445392634 -0.1710826595 0.2985126444 0.0814894709 -0.2346988551 0.3456196996 -0.4381755980 -0.2581505306 0.3474335053 0.1058483273 -0.2708775844 0.3128850709 0.3366690923 0.2608574951 -0.1292993205 -0.4392804766 0.1245607665 -0.2965014966 -0.1639285186 0.4965180226 -0.2563091332 -0.3099103208 -0.1623066909 -0.1203531463 -0.2515311589 0.3002155668 0.1632906561 0.1328223736 0.2321984793 -0.2807839843 -0.3396287817 -0.3979802305 0.1403241515 0.0740745852 -0.4766739279 0.2424093248 -0.4023943438 -0.3731942890 -0.2198846116 -0.2703640678 -0.1659696838 0.0435650026 0.1641094854
-0.1147659009 0.0085892362 -0.0123337892 0.0122326855 0.1179841712 0.0587070569 0.1311425629 -0.0587974105 0.0042477348 0.0833074920 0.0010866066 -0.0576139250 0.0627103563 -0.1418127183 0.0451227085 0.0617598249 -0.0349381914 0.0477147359 0.0559168598 -0.0056859508 0.0844908248 -0.0348172019 0.1013368756 0.0381537542 -0.1186089120 -0.0103796781 0.0327822622 0.0576079509 -0.0970857206 -0.0067478720 -0.0481979893 0.0756201990 -0.0169971678 0.1440963577 -0.0513658739 0.0079777135 0.1080880379 0.0073874905 -0.1209607668 0.0620803174 -0.0412325715 -0.1017064167 0.0043880667 -0.1396705264 0.1139331179 0.1379020362 -0.1461734564 0.0690404353 -0.0814005498 -0.0873120983 0.0021580567 0.0648982190 -0.1034643317 0.0852232005 -0.0818260772 0.0807828438 -0.0161893067 0.1048105217 0.0840956473 0.0393925000 0.0171363220 -0.1397132701 -0.0758120593 0.0793739234
-0.0339874641 -0.0533624873 0.0768165742 -0.1039664234 -0.0827737490 -0.0265970367 0.0167973308 0.1302505032 -0.0198139463 0.0916497263 -0.1329607059 0.0314737764 0.0303710501 0.1375323883 -0.1019008131 0.0675047027 -0.1081423281 -0.0779655444 -0.0467480959 0.1237999713 0.0806743334 0.0213681714 -0.0121516382 0.0298822171 0.0996747257 -0.0170200390 0.1316786712 -0.0699367862 -0.0011030679 -0.0976213325 0.0221405158 0.0753676292 0.0953371451 0.0864636720 0.0554773713 0.1251701668 0.0465982456 -0.1458207980 -0.0452506183 -0.0738455535 0.0290758002 -0.0426183922 -0.0117038372 -0.0652504932 0.0836518422 -0.0876776662 -0.0907655014 0.0699492479 0.1015416341 -0.0856648235 0.0315492627 0.0148963155 0.0624209177 0.1398198132 -0.0266878684 0.1019818939 -0.1460203640 0.0818688820 0.0881549008 -0.0789109848 0.1032105897 0.0767752527 0.0197479290 -0.0887420034
0.0748362703 -0.0359668302 -0.0682440822 -0.0270477984 -0.1040413958 -0.1358295929 -0.0532678782 0.1431393507 0.1193731471 0.0211193865 0.0661078215 0.1196922007 -0.0968239688 -0.0985790780 0.0347256477 -0.0601489594 0.0235200509 0.0786825289 0.0118621179 0.0586399955 0.0414232379 0.0755128827 0.0613977309 0.1197975251 -0.1455385922 0.1198035797 0.0666345439 -0.1404663781 0.1241416077 -0.1226247275 0.0205600504 0.1117376489 0.1323983848 -0.0301720188 0.0984803405 0.1251748106 -0.1173120572 0.0125073493 0.0097329700 0.0696076493 -0.1145508674 0.0629150646 -0.1302087144 0.1244602014 -0.1459914812 0.1407691299 -0.1340578661 -0.0682723340 -0.1186149405 0.1449483145 0.0180900310 0.0118596365 -0.0147925176 -0.0609588109 -0.0694403494 -0.1422461979 0.0377950090 0.0252036020 0.0373724758 -0.1098820903 0.1164728631 -0.0697913959 -0.0163229730 0.0776276510
0.0655942760 -0.0529109170 -0.0510172680 -0.0563125438 0.1400830973 0.0233978940 -0.0412643411 0.0406247313 -0.0417356210 0.0075610562 0.0545882661 0.0339900849 -0.0396097763 -0.0504274273 -0.1093464086 -0.0649822817 -0.1091804579 0.0594214314 0.0495842967 0.0070833324 -0.0945974161 0.1256924141 0.1203633204 -0.1149304550 0.0612058507 0.0837874929 0.1339174430 -0.0396728898 -0.0807709900 0.0393594953 -0.0549457525 -0.0014490003 0.1386898380 -0.1305527470 0.0618759496 0.0788680666 -0.1080330934 0.1363377772 0.0140464013 -0.0180965596 -0.0357492603 0.0623625080 -0.0905540318 -0.0692042293 -0.0256283711 0.0174724791 0.0950578505 -0.1201849459 -0.0806354484 -0.0992200103 0.0195375624 0.0916059952 0.0496391711 -0.0279049861 -0.1271973253 0.0101101354 0.0619827872 0.0119755286 -0.0191091767 -0.0577691324 0.1443748240 0.1283294664 0.0563908529 -0.0121287721
0.0042474894 -0.1415453473 0.1269081942 -0.0946596941 0.0754486737 0.0200268337 0.0599164590 -0.0055184187 0.1230557355 0.0896583804 -0.0366065282 -0.0615705510 -0.1455358031 0.1198240247 0.0854886083 -0.0037328530 -0.1058650528 -0.1380639085 0.0850103747 -0.1001584106 0.0172095570 0.1131370063 -0.0600560450 0.1240474911 0.1373419844 -0.0141546727 -0.0271177847 0.0570715731 -0.1006454959 0.0714116697 -0.1255834843 0.0207381047 -0.1171461085 0.1447962894 -0.0890672817 -0.0659906707 -0.0195309095 -0.1172164634 0.1458690580 0.0247821910 0.1035761881 0.0129100835 -0.0621173020 0.0127405938 -0.0278117388 -0.0406633935 0.0998974539 0.1122075965 0.0520822622 -0.1057353365 -0.1238612519 -0.0341698616 0.0201029381 -0.1334654130 0.0715221469 0.0020199035 -0.0125483950 0.1435351732 -0.1197206808 -0.0901262234 -0.0151647704 -0.1023266840 0.0964676831 -0.0674474778
0.0271906903 -0.0755704903 -0.0467793829 -0.0924220388 0.0580065430 -0.0262449060 -0.1124952921 0.1448288932 -0.0123514534 -0.0135703468 0.0066457644 0.0283016727 0.0890904838 -0.1434493039 0.0802226972 -0.0452820266 -0.0559010931 0.1067497985 -0.1173522259 -0.0735373218 0.1049213093 0.0301833235 -0.0267719977 0.0878415027 -0.0833263096 0.0288281000 -0.1064570682 0.0840931712 0.0425227221 0.0160542458 -0.0626392462 0.0585729637 0.1108829817 0.0713659753 -0.0236965107 -0.0446570318 -0.0496452782 -0.0794706625 -0.0751974141 0.1375306385 0.1066946605 0.1335409611 0.0847472917 -0.1449047764 0.0166894880 -0.0838136424 -0.1339373996 0.1086190668 0.0445813309 0.0532691107 -0.1133925069 -0.0616410687 0.0933666929 -0.0845404787 0.0629316802 -0.0425335386 -0.0384726683 0.1086578119 -0.0594173371 0.0507929346 0.0458383404 0.0308566410 0.0690514679 0.0837122854
0.1249465737 0.2022539948 -0.4947179440 0.1460849878 -0.0071848598 0.1506976352 -0.2468618028 0.1541029416 0.0020326806 0.0911925444 0.1605008926 0.2084786886 -0.0586386424 -0.1635768598 0.0381700552 -0.2234900400 -0.2671577802 0.1195332054 -0.0187537126 0.1333933568 0.0025072283 0.1182294775 0.2909855041 -0.0886622471 0.3560228912 0.1160653836 -0.3096579148 0.3351119678 -0.2829424830 -0.2569960288 0.1027351779 0.0453023006 0.3051408509 -0.2170293047 -0.2226728214 -0.2238033147 0.4147962446 0.3762732058 -0.1546912180 0.2832143787 0.0333412344 0.1045178247 -0.3527927878 -0.2463256032 0.4712246155 0.1633482758 0.1294966318 0.0803521526 -0.1739390362 -0.1899474281 0.3124655322 -0.0330749580 -0.0038267729 0.0003357300 -0.1655806700 -0.1057489790 -0.1171980724 0.1327392507 -0.1353072162 0.1454951296 0.1178175049 -0.0327128475 -0.0304296628 -0.1609795960
-0.0279589001 0.1079629714 0.0983888719 0.0509325693 -0.0461868020 0.1208306334 0.1069635599 -0.1355055325 0.0411259508 -0.0431847498 0.1152456375 -0.1451751588 0.0701045267 0.0366642410 -0.1241324511 0.0066886324 -0.0857129429 -0.0605642186 -0.0533962260 -0.0536588800 -0.0747034413 -0.1248142741 0.0540108345 -0.0005100187 0.1050447933 0.0482185186 0.0667508620 0.1257511481 0.0755145432 0.0995338322 -0.0679831681 0.1246557801 -0.0054283709 -0.0623386846 0.0034042618 -0.1427749990 0.0964711304 -0.0485605944 -0.1404974923 0.1006728155 -0.1131706263 0.0962877857 0.0469937380 0.0294946408 -0.1127621014 0.0442145329 0.0382444453 -0.0912115666 0.0116830739 0.0051933477 0.0875917030 -0.0540457925 0.0625486062 0.0096690361 -0.1347610626 -0.0116616905 -0.1309285668 -0.1418882279 -0.0837269858 0.0112224361 -0.1132992532 0.1167681451 -0.1051640523 0.1150090290
-0.3821282165 0.0790910505 0.0916927790 0.4075877148 -0.3523938850 0.0367788172 0.0883081345 0.4722931331 0.4282009362 -0.4972589105 -0.3573815207 -0.2224651266 0.2877478814 0.2585046712 0.1002998119 -0.3793344861 -0.2837802072 -0.4079459177 0.1346835987 -0.1565694055 0.0541697766 -0.3158244396 -0.5110419734 0.2113483123 0.5272405917 0.1703292045 0.3539783932 0.7265718540 0.1970657361 0.3053309737 -0.3538168316 0.4297105497 -0.4498410787 -0.1247404925 0.2039147627 0.1607744546 0.2228085109 0.7140232211 0.0534836985 -0.3444749245 0.3674551820 -0.2420414091 0.0562549419 0.2269550643 0.4566287264 -0.3357264452 -0.3978681183 -0.2493187371 -0.0963110330 0.3142600771 -0.3153290230 0.2139724219 0.4085598760 -0.3202689172 -0.1764556662 -0.3178679347 0.4775164993 0.2432469122 0.1809735745 -0.1495274447 -0.0126411541 0.4808593736 -0.1967572151 0.1631966630
0.3097038000 0.1042285664 0.0481689890 0.3647056739 0.3563262298 0.2906659999 -0.0195958603 -0.0714394258 0.3235015903 0.3298656495 0.3740056447 -0.4290682577 0.3873762232 -0.3157415460 0.4043040307 0.2864800499 0.2163763448 -0.2023882806 0.3175241727 0.2969746837 0.1473378576 -0.3789614927 -0.2505426386 0.2612402244 0.1318724289 -0.1454136277 0.3925377119 -0.5077555818 -0.1906461642 0.3077238989 0.1556401961 -0.1252218780 0.1331841840 0.3744157720 0.3520842840 -0.3793498522 -0.3077178816 -0.1102607991 -0.3128540108 -0.2207421079 0.4391010210 -0.5302012722 -0.4574002726 -0.2018196849 -0.1659993143 -0.3383430960 0.2910558607 0.1129623436 0.1987288299 0.2369479984 -0.1501721977 -0.3868826940 -0.3109609449 0.1796981617 0.1897558604 -0.4565900853 0.2644002879 -0.2543226117 -0.2283418606 -0.1439447569 -0.1735139490 -0.3378181705 0.0007349983 0.1599835630
-0.0640662761 0.0928621073 0.0141114433 -0.0657612552 0.1272764564 -0.1243168735 -0.1337926980 -0.0999588927 0.0561377323 -0.0206101365 -0.0377316528 0.0838367424 0.0644990775 0.0899823879 0.0855641461 -0.1008073011 -0.0727248467 0.0353161236 -0.1231098513 -0.0908994070 0.0485175574 -0.0310322062 -0.0293380326 -0.0619121938 0.0043982966 -0.0423108255 -0.1236206912 -0.0789165071 0.0443098533 -0.0815822439 -0.0914345880 -0.0223084407 -0.1023293730 -0.0356691876 0.1037638286 0.1000930211 -0.0543960480 -0.0124314682 -0.0832064196 0.0871933592 0.0303729099 -0.0653665878 0.0288062366 0.0154679643 0.0070927725 -0.0352815698 0.0582776977 0.0061531792 -0.0246241276 0.0245763764 -0.0721806207 0.1079257197 0.1243331584 -0.0651938669 -0.1293068557 -0.0872398404 0.0408975290 0.0380575139 -0.1409093630 0.1325862695 -0.0262188108 0.0772280212 -0.0830189468 -0.0188348281
0.1314842484 -0.1200615780 -0.1216617119 -0.0726134078 0.1241443358 -0.0632865289 0.0345515065 -0.0076312438 0.0626749851 0.0106813068 0.1104901919 0.0732092339 0.1258535974 0.0266786688 -0.1132260525 0.0721685222 -0.1248868207 -0.1210123509 0.0373595434 -0.0146098245 -0.0449939784 0.0858407320 -0.0476616995 0.0869643953 0.1132998728 0.0904279289 0.1362560707 -0.1294886512 -0.0515790935 -0.0525743213 -0.1015427262 -0.0951742498 0.0306477650 0.0251890276 0.0235415969 -0.1076433588 -0.1270574585 -0.0793230532 -0.1170477336 0.0169493293 0.0856560670 0.0644405315 -0.0435800025 0.0111996606 0.0121967897 -0.0683763962 -0.1352341055 -0.0198804563 0.0225276621 0.0715510461 -0.0021616652 0.0691387556 -0.0580544741 0.0870006002 0.0258115394 0.0797810890 0.0417961749 -0.1208020421 -0.1147537028 0.0321626491 -0.0699352409 -0.0067158782 0.1363737470 -0.0064405636
0.0553321184 0.0203808436 -0.0351596146 0.0188438866 -0.1231891449 0.1224083211 0.0464595071 0.1212461141 0.0718566417 -0.0477195510 0.0075734145 -0.0130540840 0.0854616103 0.0866565047 0.0689405892 -0.1162779907 0.1032760426 -0.1304802956 -0.0012330108 0.0006571135 0.0603642031 -0.0185935083 -0.1267308008 -0.0064765370 -0.0856495211 0.1274292027 -0.0654961029 0.0199429767 -0.0091181034 -0.1234741296 -0.0820924573 0.0038702883 -0.0151841719 0.1101750372 0.1084934582 0.1372674114 0.0515719198 -0.0992011988 0.0517888582 -0.0899689988 0.0099296884 0.1094311940 0.0673640173 0.0536401849 -0.1142357757 0.0563234998 0.0472108918 -0.0111303522 0.0407173583 -0.0621793468 -0.0195986455 0.0915392907 0.0285426714 -0.1022240031 -0.0653072009 -0.0737388373 -0.0579099682 -0.0118436997 0.1239432046 0.0095693151 -0.0265869897 -0.0776803720 -0.0976791277 0.0379309730
0.0727103198 -0.0764659407 0.1455192784 -0.0306172429 -0.0803623344 -0.0088488884 0.0495561234 0.1011991891 0.0735367840 -0.0419864221 -0.0056258637 -0.1415798051 0.0753943763 -0.0422080861 0.0946706579 0.0032837647 -0.1243673515 0.1443680705 0.0935047544 -0.1222677270 0.0463747818 0.1212547202 -0.0878744883 -0.1214309035 0.0127250389 -0.0089210410 -0.0832473606 -0.0076437937 -0.1069998024 0.1338660265 0.0903071401 0.0109526853 0.0614901759 -0.0771710573 0.0328478919 0.0658454874 -0.0220757912 0.1438471632 -0.0139523943 -0.1320356863 -0.0162123189 0.1279541016 0.1282986454 -0.0238037389 0.0259534459 0.0103693291 -0.0425894570 -0.0961113980 0.0409224278 0.1178079916 -0.1092334889 -0.0454074096 -0.0910086619 -0.0099128511 -0.0567585712 -0.0062942958 -0.0836696378 -0.1345418408 0.0730909459 -0.0586924138 -0.0694416083 -0.0309747685 -0.0135328988 0.0635194239
0.1437078472 -0.0964735506 0.0313412911 -0.1397249643 -0.0899795943 0.0527271291 0.0008273267 0.0468575131 0.0512788272 0.0431319964 0.0558537862 0.0837234202 -0.0812855509 -0.0434938275 -0.0168045218 0.0970235896 -0.1027128159 0.0722425665 0.1103528136 -0.1035485418 0.0705240960 -0.0131385025 0.0737662435 -0.0839665988 -0.1048485631 0.0193357480 0.1246871623 -0.0981039381 0.1349495062 0.0663793462 0.1116936536 0.0840918240 0.0845579303 -0.0953750983 0.0091833023 -0.0998542910 -0.0750838592 0.1086681622 0.0812333683 0.1025153731 -0.0711568890 0.0566699863 0.0161633607 -0.0303556665 0.0744372284 0.1255818800 0.0363072322 0.1358534268 0.0037126151 0.0301843825 -0.0895599555 0.0275966874 -0.1199344498 -0.1406504250 0.0968470222 0.0332619200 -0.0874219119 -0.0685264785 -0.1213365649 0.1260567595 0.0670932571 -0.0367566155 0.0298055389 0.1434474549
-0.4592615798 0.0152623040 0.4552421545 0.3363396872 -0.2769345823 0.1524957525 0.3129947491 0.4097942051 0.2362001220 -0.3679136442 -0.4115644394 -0.1685460979 0.1073671947 0.1082953495 0.1371365170 -0.1956707037 -0.1321121652 -0.4138638260 0.3482935528 -0.3494172407 0.1442084296 -0.2399455364 -0.4047926021 0.3210365651 0.3655639108 0.3643576973 0.3771308372 0.5948007421 0.2934089670 0.3837702807 -0.3154491172 0.3757906037 -0.4350933866 -0.0852762899 0.1037813117 0.1586698014 0.3572460415 0.3463193221 0.0577757627 -0.2827704816 0.4812158499 -0.3759766532 0.1443209349 0.2227812761 0.6952651834 -0.2580378148 -0.1767462732 -0.3446735131 0.0570762339 0.2990123593 -0.1999654628 -0.1558357280 0.3527013242 -0.1976274114 -0.0922386201 -0.1630362722 0.2936115618 0.1992750323 0.4489620243 -0.1578631560 -0.0403197624 0.2491207085 -0.1332112508 0.2169466662
-0.0509452595 0.0661145653 0.0167039894 0.0751566737 -0.0882996575 -0.0466396477 0.0917373785 -0.1374271321 0.1208470775 0.0557083862 -0.0003592768 -0.1289334625 0.0459400728 0.0530971758 0.1370452153 0.0756166840 -0.1454622221 0.0339119552 0.1170643986 -0.0414989610 0.0533587686 -0.0254967394 0.0626863352 -0.0140647037 0.1103241979 0.0758849683 -0.0134248785 0.0230675737 -0.1216508688 0.1400670849 -0.0867694133 0.1416306512 -0.0162758858 -0.0472179206 0.1393034551 -0.0893761591 -0.1309933383 -0.1412324765 -0.0994274300 -0.0374658143 -0.0148050614 -0.0000295787 0.1066203357 0.0232467274 -0.0625077237 -0.0021280943 -0.1091278785 -0.1039943773 -0.0927958603 0.1321867520 -0.0614897996 0.0901393860 -0.0696303147 0.0299940280 -0.0755283014 0.0764308924 -0.1063213639 -0.0380563608 0.0081709819 -0.0556416795 0.0135705494 -0.1247225583 -0.0245699762 0.0843201483
-0.0111818725 -0.1129144916 -0.1385350179 -0.1172055197 0.0877043873 -0.0444901944 -0.1037620985 -0.0372846184 0.1334949277 -0.1069968884 0.0226782842 -0.0131666087 0.0849086656 -0.0165848375 -0.0594143403 -0.1062316426 0.0596570682 0.0779439748 0.0117289124 -0.0863172508 0.0924389081 0.0072311841 -0.1347715960 -0.0128694562 -0.0387478177 0.0210051281 -0.1202118094 -0.0406619968 -0.0158522406 0.0743236111 0.1214289205 -0.1148040882 -0.1447302171 0.0890078075 0.0761017493 0.0944504041 0.0328524187 -0.0569078576 -0.0165189030 -0.0549955495 -0.0069086709 0.0269140829 -0.1036866894 0.1081505381 -0.1161000599 -0.1378157180 -0.1410265991 -0.1064045653 0.0198791585 -0.0542069404 -0.0395236976 -0.0776166016 -0.1022919947 -0.0419781508 0.1107814428 -0.0527229923 -0.1430605062 -0.1234891244 0.0413855566 0.0007347223 0.0190740622 0.1182323865 0.1078380224 -0.0290057630
